%YAML:1.0
my_svm: !!opencv-ml-svm
   svm_type: C_SVC
   kernel: { type:LINEAR }
   C: 2.6699999999999999e+000
   term_criteria: { epsilon:1.1920928955078125e-007, iterations:1000 }
   var_all: 16000
   var_count: 16000
   class_count: 3
   class_labels: !!opencv-matrix
      rows: 1
      cols: 3
      dt: i
      data: [ 1, 3, 5 ]
   sv_total: 3
   support_vectors:
      - [ -1.66481539e-006, -3.29267391e-006, -6.63875699e-006,
          -6.17036267e-006, -2.29088710e-006, 2.51209394e-006,
          -1.03832910e-007, 1.55926514e-007, -3.55348175e-006,
          -1.33433207e-006, 3.20356617e-006, -3.16455134e-006,
          -1.73759622e-006, 6.24521732e-008, 2.43985437e-006,
          2.52847030e-007, -3.78164458e-007, -2.36309123e-008,
          -1.76323283e-006, 2.42834540e-006, -2.76155288e-006,
          2.06753043e-006, -5.09448739e-007, -3.16434216e-006,
          -5.09289112e-006, -3.49807101e-006, -3.52637608e-006,
          -9.88625288e-007, 1.93868050e-006, -1.49108087e-006,
          1.77209941e-007, -1.91871231e-006, -1.87817295e-006,
          -1.55047735e-006, 2.36704707e-007, -2.03998957e-006,
          -1.99334181e-006, -2.06016878e-007, -1.54010638e-006,
          -7.67921483e-006, 3.54792428e-006, -3.25516424e-007,
          -1.03191473e-006, 1.83091890e-006, -6.59850116e-007,
          -5.57858311e-006, 2.11505744e-006, -6.43331191e-007,
          -4.30248247e-006, 4.25778552e-007, -3.67905454e-006,
          4.89705826e-007, 4.76027147e-008, 4.93853167e-006,
          2.34825438e-006, -4.51759433e-006, -2.81318057e-006,
          -5.89774118e-007, -4.75968682e-006, -2.75654202e-006,
          1.47522837e-006, 3.74256183e-006, 2.53639632e-006,
          -1.75247798e-008, -8.60261082e-007, 1.93064466e-006,
          6.62066839e-007, -4.89326885e-006, -1.40349619e-006,
          3.54678173e-006, -8.47604440e-007, 6.46145040e-008,
          -1.01911631e-007, 1.88821571e-006, 8.87574913e-007,
          -4.96329108e-007, -6.75962337e-006, 2.25288682e-006,
          2.12508621e-006, -9.69308985e-007, 1.19340518e-006,
          2.32501020e-006, 4.19684238e-006, -5.64600668e-006,
          -2.52939321e-006, 3.85241236e-007, 2.13932162e-006,
          -1.10333576e-006, -2.97253087e-006, -1.19508411e-006,
          -6.38835763e-006, 4.54624524e-006, 4.88490741e-006,
          -7.28798022e-006, 1.83508902e-007, -1.98602834e-006,
          -1.48654533e-006, -3.76217599e-006, 1.43117882e-006,
          2.21122241e-006, -6.54991027e-007, -6.37424819e-007,
          3.67124062e-006, -1.60973457e-006, 3.00001579e-006,
          2.41976113e-006, -2.13775564e-007, -3.76633238e-006,
          -4.61860736e-006, -3.13110058e-006, -3.59697083e-006,
          -9.28640929e-007, -3.98142902e-006, 5.49580773e-006,
          -2.13508415e-007, 2.67028554e-007, -4.02795104e-006,
          3.00451438e-006, 3.56669898e-006, -3.53206860e-006,
          -1.23241978e-006, 2.34555932e-006, -3.13381452e-006,
          -4.90183629e-006, -1.41417684e-006, 3.97353324e-006,
          1.76751246e-006, -8.69776443e-007, -2.21063874e-006,
          4.14828082e-006, -2.48455331e-006, -4.16737294e-006,
          1.09481755e-006, 8.44419083e-006, 1.38974178e-006,
          1.60836942e-006, 4.27153083e-007, -2.31507087e-007,
          -1.17724812e-006, -1.29803183e-007, -3.69943609e-006,
          1.29644661e-006, 4.73883938e-006, 8.13216616e-007,
          -4.00479621e-006, -1.40226985e-006, -5.33656294e-006,
          5.64617970e-008, 1.39730514e-006, 1.77301774e-006,
          4.86395493e-007, -1.63338166e-006, -9.48274101e-006,
          -9.15364581e-006, -3.03474849e-006, -5.76364812e-007,
          -3.67724328e-006, -3.73797502e-006, 2.08869869e-006,
          5.28654709e-006, -7.39528696e-006, -1.32495279e-006,
          -1.03212460e-006, -6.84310692e-007, -2.19480194e-006,
          1.61043749e-006, -1.36935500e-006, -1.75655032e-006,
          -2.61500554e-006, -3.50673275e-007, -1.62893082e-006,
          -8.06845321e-007, 7.04122442e-007, -4.43424682e-007,
          -2.38121379e-006, -4.70938267e-006, -1.33075378e-006,
          -1.45520085e-006, -7.29700605e-006, -4.16829323e-007,
          -1.88507852e-006, 1.86422835e-006, 1.08432664e-006,
          -7.85101690e-007, 1.71174042e-006, -2.65723702e-006,
          -1.96081919e-006, 6.08401706e-007, 9.67761267e-008,
          9.97168627e-007, -1.33762319e-006, -9.00001453e-007,
          2.06922027e-006, 6.50759966e-006, -1.48499680e-006,
          -2.16426699e-007, -4.83047415e-006, 3.76251410e-006,
          -3.63981076e-006, 6.76163666e-007, 2.63445088e-007,
          -1.39832957e-006, -5.84723784e-006, 1.34129550e-006,
          -1.44757394e-006, -2.12175587e-006, -1.59829972e-006,
          -3.00397915e-006, -3.96727501e-006, 6.09603148e-007,
          -4.86678437e-006, -5.86113003e-007, 2.49641312e-006,
          1.37326504e-006, 1.06603261e-006, -2.86042177e-006,
          4.92764627e-007, 1.96773999e-006, -3.03797128e-006,
          -1.79316908e-006, 3.45992497e-008, -5.94987000e-007,
          -1.02679337e-006, -1.30864055e-006, -3.83308543e-006,
          4.52576330e-007, 4.13004227e-006, -2.90455250e-006,
          2.13267617e-006, 3.52408483e-006, 3.21498078e-007,
          -2.35477796e-006, 3.48448066e-006, 3.26512395e-006,
          -1.27711132e-007, -2.07733115e-006, -6.04786146e-006,
          2.29989473e-006, -3.97784743e-006, -2.91431479e-006,
          5.25145367e-007, -1.02815522e-006, -3.72949762e-006,
          -2.80953213e-006, -3.39603776e-006, -2.50219637e-006,
          -1.04435901e-006, -5.79910306e-007, 7.53575819e-007,
          -1.09652774e-006, -4.29488136e-006, -3.19435799e-006,
          4.67337259e-006, -5.16235787e-006, -1.00505838e-006,
          4.09943095e-006, 2.05440620e-006, -2.65241709e-007,
          -3.13630437e-007, 1.37143400e-006, -3.71553233e-006,
          1.91022809e-006, -6.31325247e-006, -6.01588954e-006,
          -2.84468729e-006, -2.37689778e-006, 1.81087432e-006,
          -1.80341840e-006, 2.25725626e-006, -3.48357889e-006,
          -2.11296924e-006, -4.45670224e-007, -1.83598866e-006,
          -6.71648013e-006, -3.52624011e-006, -4.93451626e-006,
          -5.63431558e-006, 1.62767117e-006, 5.12350562e-006,
          -2.21388495e-006, 2.83032591e-006, 3.93513710e-006,
          -1.82384258e-006, -6.44531883e-006, -2.62159870e-006,
          -3.71583747e-006, -2.00234194e-006, -3.51927156e-006,
          -2.15130149e-006, 2.04487060e-006, -4.29990791e-007,
          -5.71322062e-006, 1.13044575e-006, -1.36108667e-006,
          -8.51643108e-006, -1.16945580e-006, 1.00167722e-006,
          5.01659025e-009, 5.37233927e-006, -3.41528153e-006,
          -2.64941377e-006, 2.82982160e-006, -5.07846971e-006,
          -2.41962721e-006, -3.32110744e-006, 3.59934370e-006,
          2.35160673e-008, 2.44223020e-006, -2.89445302e-006,
          3.64541592e-007, 3.43124157e-006, -5.94217227e-006,
          6.40065764e-006, 7.11424127e-006, -6.76698482e-006,
          -3.11119652e-006, 5.40347810e-006, -1.31957927e-006,
          3.61315165e-006, -1.58415469e-006, 1.14579711e-006,
          2.44305625e-006, -1.87566320e-006, -3.27944190e-006,
          5.79541002e-008, -1.39661915e-006, -6.11226005e-006,
          5.78580057e-006, -7.04540753e-007, -2.17942716e-006,
          -1.06379753e-006, -2.33906917e-006, -1.68888846e-006,
          4.17371621e-006, -8.90664808e-007, -7.92266655e-006,
          -1.19196975e-005, 3.97546091e-006, -1.79491701e-006,
          -1.36959920e-006, 1.21314145e-006, 4.11113479e-006,
          1.19100685e-006, -6.74725197e-006, 4.03256581e-006,
          -3.44796774e-007, -3.44255477e-006, -8.77146340e-006,
          -2.26544330e-007, 8.93234665e-006, -3.77113963e-007,
          -5.94213088e-006, 4.68988537e-006, -8.77426089e-007,
          7.68091354e-007, -6.36886534e-006, -4.26216957e-006,
          -3.38949781e-006, -5.26750364e-006, -7.84755593e-006,
          1.46501975e-006, 3.61435241e-007, -3.09210213e-006,
          -7.04186368e-006, -1.73935314e-006, -4.52893164e-006,
          -4.86377894e-006, -7.63866353e-007, -2.40253053e-006,
          -2.82670840e-006, -5.36905509e-006, -2.70972123e-006,
          -3.46629258e-006, -1.15126898e-006, 4.10539224e-006,
          -5.67406323e-006, 7.45321756e-007, 1.86112436e-006,
          -4.31186390e-006, -6.02263708e-006, 1.39251995e-006,
          6.05532364e-007, -5.87893237e-006, -7.27382576e-006,
          -1.56983810e-006, -1.04509255e-007, -4.21269942e-006,
          3.19128617e-006, -2.91424249e-006, -4.89341858e-007,
          4.48055488e-007, -3.43597299e-006, 1.68012366e-006,
          -1.97852250e-006, -3.97738540e-006, -1.96719725e-006,
          2.77119193e-006, -1.73905710e-006, 1.57388490e-006,
          1.77428331e-006, -1.85837462e-006, -3.01292380e-006,
          -2.98313421e-006, -5.66990252e-007, -1.64680455e-006,
          9.96251970e-007, -1.40166139e-006, -5.11682060e-007,
          -7.23486892e-006, 8.96953509e-007, -3.81646532e-006,
          -3.55602901e-006, -2.56270050e-006, -1.02808620e-007,
          1.12568966e-006, -3.74618992e-007, -2.47682169e-006,
          1.89240347e-006, -7.18821320e-006, -4.60218132e-007,
          -2.84215344e-006, 2.84607472e-006, -1.26485190e-006,
          -7.88257876e-006, -2.55845521e-006, -4.99140060e-006,
          -1.46946672e-006, 1.75024229e-006, 5.67616644e-006,
          -6.47501452e-007, 7.31256762e-007, 7.24888991e-007,
          3.15344914e-006, -7.55360361e-006, -2.94182450e-006,
          -5.87477234e-006, -3.26937493e-006, -4.08256938e-007,
          1.23944380e-006, -6.13054738e-007, 5.95357108e-007,
          -7.35581978e-007, -5.63582444e-006, 1.50900348e-007,
          -6.60162982e-007, -9.02507782e-006, 3.43549277e-006,
          -7.81181825e-006, 2.96293706e-007, -4.20469496e-006,
          4.02221849e-006, -4.49103936e-006, -1.57205204e-006,
          -9.92768832e-007, -1.66783923e-006, -3.22302412e-006,
          1.94613150e-007, 3.21175685e-006, 6.82672749e-007,
          2.59700528e-006, -3.07395226e-006, -5.21512447e-006,
          2.89180434e-006, 5.24031066e-006, -1.97558302e-006,
          1.09058635e-006, -2.93667358e-006, 3.10712426e-006,
          -6.70466989e-007, 2.41868497e-006, 8.27008535e-007,
          -1.10908225e-007, -3.32624290e-006, -2.19256231e-006,
          2.53643407e-006, 5.87480770e-007, 2.82888118e-006,
          2.41092948e-006, 2.82499468e-006, -7.16155171e-007,
          -2.83117106e-006, 9.02483066e-007, 1.18381399e-006,
          -2.92975483e-006, -1.56353678e-006, 2.46762238e-006,
          -3.43499755e-006, -3.86653028e-006, -4.63846482e-006,
          -1.65559015e-006, 6.65028551e-007, -3.50476284e-006,
          -1.61078322e-006, -2.94175720e-006, -4.24094424e-006,
          -6.91874266e-006, -4.17377032e-006, -1.67428811e-006,
          2.00086652e-006, -4.55455256e-006, -5.70666180e-006,
          1.10269718e-006, 2.49387699e-006, -5.52749589e-006,
          5.01384739e-006, 2.36616938e-006, -3.89870775e-006,
          -6.03330454e-006, -7.12574433e-007, -2.12137502e-006,
          -3.34688593e-007, -1.52316045e-006, -2.44056423e-006,
          -6.56871975e-007, 1.68351050e-006, -1.64836581e-006,
          2.97391580e-006, 2.64986670e-006, -4.17649062e-006,
          -6.06961294e-006, -6.64664469e-007, -3.89961497e-006,
          -4.10792381e-006, -8.21731101e-006, 1.85408521e-006,
          -1.33777121e-006, -4.75519300e-006, 1.49575396e-006,
          -3.48893332e-006, -2.46659056e-006, -6.92999538e-006,
          -5.50635059e-006, -4.87594298e-006, 1.83161671e-006,
          -2.64811774e-006, -4.51172355e-006, 3.51607987e-008,
          2.31198919e-006, -2.52431960e-006, -6.90244906e-006,
          5.27906650e-006, -5.20900699e-007, 4.51928054e-006,
          -5.21562743e-006, -9.57664724e-007, 2.64669040e-007,
          3.12546422e-006, -1.67142696e-006, -1.02291301e-006,
          -9.32771115e-007, 2.54507609e-006, -3.07016148e-006,
          -4.48489163e-006, -8.78101901e-007, 1.26163286e-006,
          -5.57320072e-006, -4.81316465e-006, -1.44860041e-006,
          -6.95101505e-007, -1.40819645e-006, -5.86560986e-007,
          1.39925635e-006, -5.59297314e-006, 1.46085222e-006,
          -5.42698615e-007, 2.97729662e-006, -2.36487679e-007,
          -1.10857707e-006, -3.70477073e-006, 1.53874919e-006,
          -2.88394062e-006, -3.48605431e-006, 3.58716602e-006,
          7.71138389e-007, 5.30028217e-007, -3.46159823e-006,
          5.15900138e-006, -2.94074039e-006, 8.62004015e-007,
          -4.01313127e-006, -3.69034126e-007, 1.93886922e-006,
          -5.31044725e-006, -6.25493840e-006, 2.26138172e-006,
          3.45237481e-006, -1.94570453e-006, -4.06536492e-006,
          -2.04418052e-006, -6.36901768e-006, -2.06446498e-006,
          -3.03327579e-006, -2.21194887e-006, -1.27916746e-006,
          2.69070119e-006, -8.85595728e-006, -8.45130671e-006,
          -1.04563355e-006, 4.28604881e-006, -5.34498895e-006,
          -8.83092810e-007, -4.36981850e-007, -4.28457588e-006,
          -2.89794616e-006, 1.77575589e-006, 1.18138166e-006,
          -4.03949116e-006, -8.95474113e-006, 6.61505192e-006,
          2.42088095e-006, -2.57323950e-006, -1.53531869e-006,
          1.29128023e-006, -1.35741985e-007, -3.28077454e-006,
          5.60704802e-006, 1.77510685e-006, 1.51267230e-007,
          2.88990191e-006, -5.70942257e-006, -2.15909904e-006,
          -1.58594059e-006, -2.53440044e-006, -1.93133519e-006,
          5.60971500e-007, 1.06031200e-006, -4.21149934e-006,
          -1.90345224e-006, -2.36233382e-006, -1.43259840e-007,
          6.30357647e-007, -3.22086089e-006, 4.36551591e-006,
          -1.06398836e-007, -2.71021963e-006, -4.77684353e-006,
          -6.83257576e-006, -3.90891410e-006, -9.30956901e-007,
          -2.67984956e-006, -1.59014303e-006, 4.57089618e-006,
          9.41267047e-007, 1.06827137e-007, 1.47708647e-006,
          -5.58774218e-007, -2.64641631e-006, 3.72540671e-006,
          -2.45897513e-006, -1.47891296e-006, -5.80197002e-006,
          3.04748778e-006, 8.38408170e-008, 2.41245630e-006,
          1.36542371e-006, -2.13647536e-006, -4.60232786e-006,
          -3.86563300e-007, -4.14853639e-006, -1.79129142e-006,
          1.69062582e-006, 8.98942403e-007, -1.94616700e-006,
          -3.77134097e-006, -8.92995331e-007, 1.00598800e-006,
          -2.73732695e-007, -6.69986548e-007, 1.21724577e-006,
          -1.29640819e-006, -2.21714254e-006, -4.15558247e-007,
          5.17959552e-006, -3.05419434e-007, 5.16406772e-007,
          -1.72073317e-006, 3.68145948e-006, 1.49684396e-007,
          1.19976733e-006, 3.14646809e-006, 2.58773230e-006,
          1.54929103e-006, 3.15659094e-007, -3.60791023e-006,
          5.65371863e-007, 8.15789065e-007, -2.44832586e-006,
          9.67544111e-007, 5.36938217e-007, 8.29689952e-007,
          1.50960409e-006, 3.20136564e-006, 1.77640885e-007,
          -3.52635470e-006, 1.01088347e-006, 1.48818913e-006,
          2.56877684e-006, 4.02303885e-006, -8.07883680e-007,
          -2.78744710e-006, 1.98961561e-006, 3.37551819e-006,
          5.17490298e-006, -3.07486789e-006, -1.10729616e-006,
          -1.05809113e-006, 1.67138001e-006, -3.60734884e-006,
          -3.40298175e-006, 2.50768039e-006, -6.78438619e-006,
          -1.94833819e-006, 2.00271211e-006, 5.65379878e-006,
          -1.13013982e-006, -1.54364375e-006, -2.01730160e-007,
          -1.27870646e-006, -1.48364848e-006, -3.41253326e-006,
          -8.32176511e-007, 1.07579149e-006, 2.02074807e-006,
          -7.71972282e-006, -2.83116583e-006, 1.22150834e-006,
          5.87967952e-006, -9.31361774e-006, 3.27673797e-006,
          -2.82517158e-006, -8.70779058e-006, -2.99362250e-006,
          3.67044731e-006, -3.58016678e-006, 2.59849890e-006,
          -1.86355703e-006, 1.40635461e-006, -8.86750627e-007,
          -6.39901054e-006, -3.11476288e-006, 1.81694574e-007,
          1.06671371e-006, 1.87804517e-006, 4.03944978e-006,
          -2.65691057e-007, -2.29553211e-006, 1.40886038e-006,
          -1.82796271e-006, -5.39028042e-006, 9.21878836e-007,
          1.05041829e-006, 2.38425491e-006, 1.74277318e-006,
          3.02643298e-006, -3.06588981e-006, 5.54473945e-006,
          -5.68598523e-007, 7.80477706e-007, -2.33131368e-006,
          -6.10279301e-007, -3.91360345e-006, -5.34109904e-006,
          1.60511024e-006, 3.91992444e-007, -5.69208578e-006,
          -5.96824657e-006, 2.47460730e-006, -1.43401769e-006,
          -4.17121470e-007, 6.88388536e-006, -3.61271532e-007,
          -6.10195320e-006, 5.06182278e-006, 8.04497722e-006,
          -3.62851301e-006, 4.64412324e-006, -3.81417209e-007,
          -3.21174707e-006, -4.26334236e-006, -4.26461929e-006,
          -5.14970543e-006, 3.30764442e-006, -7.85325574e-006,
          -5.32281035e-007, -9.94305537e-007, -3.26566396e-006,
          -2.92944242e-006, -4.52365953e-007, -6.16712578e-006,
          -4.65571020e-007, -6.18962872e-007, -3.25586416e-006,
          3.04202740e-006, -2.13410817e-006, -3.17171339e-006,
          -3.74562796e-006, 2.70042096e-006, -4.91005403e-006,
          -2.59851532e-007, 9.64867354e-007, 9.63616529e-008,
          1.35923722e-006, -1.79329436e-006, -2.22422454e-006,
          5.82131747e-007, -4.13487896e-007, -6.80269659e-006,
          1.71297955e-007, -2.58835234e-006, -4.16414014e-006,
          2.19069008e-007, 1.75605834e-007, -1.65349104e-006,
          2.66941652e-006, -6.38116535e-006, -4.81658890e-006,
          1.17121897e-006, -1.17279080e-006, 1.18562832e-006,
          -9.53591893e-007, 1.84768828e-006, -2.50555672e-006,
          -2.22360548e-008, -3.38538121e-006, 4.59604735e-006,
          2.62509138e-006, -3.81008590e-006, 1.86648288e-006,
          8.64101935e-007, -2.28372505e-006, -2.31648801e-006,
          -4.70110353e-006, -1.57512898e-006, -2.60558835e-007,
          -6.17619617e-006, -2.91598894e-006, -3.89098204e-006,
          -1.48594415e-006, -7.56938618e-008, -2.59451326e-006,
          -1.72811008e-006, 3.57164231e-006, -3.40845162e-007,
          -7.87254612e-006, -5.01727754e-007, -5.56432497e-006,
          -2.04003254e-006, -4.18870286e-006, -2.68427038e-006,
          -5.44852810e-006, -9.49316563e-006, -4.41858504e-007,
          -5.13141822e-006, 2.10742246e-006, 1.01775868e-006,
          -4.67477867e-006, -1.10350720e-006, 1.86847456e-006,
          -2.91441484e-006, 5.83489168e-007, -1.79479127e-006,
          -4.06738445e-006, -1.53864778e-006, -5.57644717e-006,
          -1.72336831e-006, 1.16459653e-007, 3.32106993e-006,
          -5.09520578e-006, 5.50703771e-006, -8.10526558e-007,
          -1.48065021e-006, 1.77010156e-006, 2.29081274e-006,
          1.77812808e-006, -8.32854369e-007, 4.44494361e-007,
          3.53528799e-006, 8.06721857e-007, -1.64606536e-006,
          2.50461676e-006, -2.62021558e-006, -2.22924746e-006,
          6.14026135e-007, -7.90381364e-006, 7.61728188e-007,
          4.71457770e-006, 3.10599353e-006, -5.18352590e-006,
          1.72088573e-006, 3.66816835e-007, 1.46911668e-006,
          2.99880369e-008, 4.26720817e-006, 1.17134221e-006,
          -1.09325867e-006, -2.82202632e-006, 2.50409448e-006,
          -6.35840615e-006, -2.85633928e-006, -1.38929818e-006,
          -5.58391164e-008, -6.06794038e-006, -2.02221486e-006,
          -6.41102133e-006, 2.33246993e-007, 1.10560472e-006,
          -1.54275870e-006, 2.44544731e-006, -5.62037030e-006,
          -5.07073264e-006, -4.24367130e-007, -1.69235011e-006,
          -1.75454909e-006, -4.02387514e-006, -2.16470903e-006,
          2.59767626e-006, 4.06557729e-006, 1.33406684e-006,
          -5.77479341e-007, 2.28625686e-006, -2.52205200e-006,
          -2.73962473e-006, 2.30808109e-006, -2.47864887e-006,
          -1.41845578e-006, 1.55823227e-006, -5.15915644e-006,
          8.12840938e-007, -1.77936943e-006, 4.12786630e-006,
          -9.02406214e-007, -3.05643221e-006, 8.18652893e-007,
          8.82160566e-006, -2.48044535e-006, 3.82843200e-006,
          -7.28559883e-007, -9.39731990e-007, -2.08096981e-006,
          -9.37327059e-006, 5.95585789e-006, 5.51341031e-007,
          -1.42675947e-006, -6.65046628e-006, 2.31955411e-007,
          -1.80843972e-006, -4.44322040e-006, -6.78454671e-006,
          -2.47138996e-006, 2.35925245e-006, 1.32681430e-006,
          -3.24020834e-006, 8.14012219e-006, 3.08238941e-006,
          -1.36877475e-006, -1.06104142e-006, 4.61633863e-006,
          -2.15536443e-006, 1.86318084e-006, 4.94322556e-008,
          7.11713977e-009, 4.63710649e-006, 5.46182150e-007,
          -2.53574922e-006, 7.03792102e-006, -4.26028890e-007,
          -1.20315508e-006, 4.83187841e-006, -4.62089520e-006,
          3.01514797e-006, -3.07497316e-006, -4.68769531e-006,
          -7.35002868e-006, -3.47321907e-006, 2.24325072e-006,
          -3.03313868e-006, 6.18687068e-007, 1.05353297e-006,
          -5.07893037e-006, 6.75676893e-006, 3.62761102e-006,
          1.66430345e-006, -1.38600535e-006, -4.62453318e-006,
          5.92028528e-007, -3.26769259e-006, -2.62351728e-006,
          -1.88468084e-006, 7.80201333e-007, -2.30131050e-007,
          2.94589586e-006, 1.77527431e-006, -4.72084912e-006,
          -1.29517719e-006, -5.61454590e-006, -8.19873549e-007,
          8.06650519e-007, -1.39148335e-006, 3.35991808e-006,
          1.46316290e-006, -4.41809516e-006, -3.36865668e-007,
          -6.26273163e-007, -1.33070944e-006, -2.89652826e-006,
          -1.23993652e-006, 5.73546686e-007, -2.67617952e-006,
          2.93072230e-006, -4.91538958e-006, -8.44512513e-008,
          1.71849092e-006, 4.05390580e-007, 2.81835332e-006,
          -4.97873316e-006, 3.42993189e-006, -1.26730060e-006,
          -1.99205965e-006, -1.91676634e-007, 9.25888671e-011,
          3.00776082e-006, -1.59270485e-006, 5.23166705e-007,
          2.85206329e-006, -3.80449774e-006, 7.91783293e-007,
          3.34376819e-006, 6.74606042e-007, 4.47304456e-006,
          1.86217818e-007, 2.14441002e-006, -4.64328423e-006,
          2.68196527e-006, 1.59308763e-006, -1.17136710e-006,
          3.53388486e-007, -7.75062688e-007, -7.55029441e-006,
          1.69613736e-006, -3.60656486e-006, -1.63183358e-006,
          -3.24813141e-006, -2.49977370e-006, -1.57193699e-006,
          1.09077455e-007, 3.94449125e-006, 2.30783462e-006,
          -1.63572304e-006, 1.82257725e-006, 3.02513308e-006,
          -3.83175666e-006, -8.19383615e-007, 2.30010437e-006,
          4.28002113e-006, 1.69037708e-006, 1.24776352e-006,
          -1.08534255e-006, 1.67911867e-006, 4.51682553e-007,
          -3.88010585e-006, 1.94868198e-006, -1.88770605e-006,
          -8.11542520e-007, -5.03481351e-006, -3.49195693e-006,
          -2.10485769e-006, -2.79733490e-006, -4.29105398e-007,
          1.52164580e-006, -5.89626870e-006, 7.85749876e-007,
          -2.84923885e-006, -3.89661136e-006, -3.07361688e-006,
          -5.05993557e-006, -2.91552806e-006, 1.33112644e-006,
          5.60855460e-006, -2.35179323e-006, -3.39671578e-006,
          1.21326968e-006, -6.31431476e-008, -1.36054371e-006,
          -3.07238747e-006, 1.21223366e-006, 4.02125852e-006,
          3.04212176e-006, -4.40408212e-006, 2.76376977e-006,
          -4.17742558e-006, -2.53039661e-006, -4.14389660e-006,
          -3.30717967e-006, -6.88298405e-006, -4.64342020e-006,
          -4.44643092e-006, -3.34657489e-006, -1.19015124e-006,
          5.67976599e-007, 3.67635585e-006, -4.35717902e-006,
          -7.22441791e-006, -2.57940457e-007, 3.03224556e-006,
          -7.62011814e-006, -1.90094340e-008, -4.34319190e-006,
          6.23374535e-006, -2.90233834e-006, 2.49871482e-006,
          5.11460421e-008, -5.74620390e-006, -3.02542816e-007,
          -2.24549666e-007, -6.33705611e-007, -4.52211134e-006,
          -2.72314787e-006, 3.33826074e-006, -3.28248711e-006,
          -6.47193883e-006, 2.29608941e-006, -3.11338454e-006,
          -1.89632624e-006, 4.69483467e-007, -4.56817634e-006,
          -1.09133782e-006, -1.67273004e-006, -5.11246412e-007,
          -5.21165589e-007, -3.10792331e-007, -3.27275848e-006,
          -1.44391822e-006, 1.35495009e-006, 3.23084623e-006,
          -4.71750980e-007, 2.23886673e-007, 1.29239754e-006,
          -8.44090778e-007, -5.67088864e-006, 4.66761185e-006,
          -3.31330966e-006, -4.07740436e-006, 8.62515151e-007,
          -1.46965078e-007, 3.10668412e-007, -3.23282188e-006,
          -4.46756712e-006, 2.91740633e-007, -6.09128938e-006,
          -2.90474168e-006, -2.14587294e-006, -6.25747134e-007,
          4.28971362e-006, -3.03929573e-006, -1.11387180e-006,
          -5.88540479e-006, 7.98168287e-007, -2.30882620e-006,
          -1.41957401e-006, -8.84698864e-007, 2.56236308e-006,
          7.91998616e-007, 2.21645155e-006, -1.14346471e-006,
          -1.68973691e-006, 3.09353794e-007, 4.00062527e-006,
          -3.98165366e-006, -2.13513044e-006, 6.16325622e-007,
          -5.34759056e-006, -4.26135330e-006, 1.02480851e-006,
          -1.59964009e-006, 1.60097022e-006, -6.69103065e-006,
          1.89758532e-006, 1.46349336e-007, 1.25178508e-006,
          5.63873414e-007, 6.84739825e-006, -1.69289069e-006,
          1.06095547e-006, -6.79765481e-006, -3.98808697e-006,
          -1.11006693e-006, -1.02767729e-006, -3.09071402e-006,
          -5.85836162e-008, 7.02975626e-007, 3.06109982e-008,
          1.62348738e-006, 2.26875997e-007, -8.93682170e-007,
          1.59824970e-006, -4.93022185e-007, -1.98909470e-006,
          6.47936020e-007, 1.46603065e-006, -6.99237489e-006,
          -4.02945807e-006, 4.50853850e-006, -3.44137311e-006,
          2.17300141e-007, 3.79260700e-006, 3.23281006e-006,
          -3.94430663e-006, -4.19966818e-006, 7.68149846e-007,
          -7.60252760e-007, -2.67686255e-006, -4.71458588e-006,
          -1.05350023e-006, 5.10266682e-006, 4.84388602e-006,
          1.97217651e-006, 3.26730583e-006, -6.30431214e-006,
          -1.35291805e-006, -1.09063819e-006, -2.53694930e-006,
          -3.54891313e-006, -1.93389042e-006, -4.30470300e-006,
          -2.49298500e-006, -1.15469845e-006, 3.48792310e-006,
          -3.37046072e-006, -4.61784884e-006, -7.68235168e-006,
          -1.81444726e-008, 3.15790339e-006, -2.65942845e-006,
          5.78004631e-007, -2.47479193e-006, -1.05910806e-006,
          -1.00358159e-006, 1.06324785e-006, 2.25387254e-007,
          -7.56315512e-006, -4.79302662e-006, 4.18329182e-006,
          -1.38498035e-006, -4.20414017e-006, 3.43290753e-006,
          1.45294655e-006, 6.15068393e-006, -3.38042923e-006,
          -1.36189897e-006, -2.51008851e-006, -6.12534450e-006,
          -8.25898439e-007, -1.93911433e-006, -1.15252578e-006,
          -7.94927757e-007, -1.78559912e-006, -4.20596098e-006,
          8.84460505e-008, -2.81617804e-006, -2.70942382e-006,
          -3.74364140e-006, 8.76178319e-007, 3.38298446e-006,
          -1.28477359e-006, -2.01088596e-007, -4.41268924e-007,
          -5.20816457e-006, 9.84059170e-007, -7.49466494e-007,
          -2.32571438e-006, -3.39812459e-007, -4.88491105e-006,
          7.99059990e-007, -5.75726699e-006, 1.31491527e-006,
          -1.05751076e-006, -5.35070376e-006, -3.06349807e-006,
          3.92048787e-006, -3.82856069e-006, -3.93906248e-006,
          5.82436940e-007, -7.19681702e-006, -1.68785539e-006,
          1.55025293e-006, 2.60640877e-006, -1.08935524e-006,
          -1.01730359e-006, -6.86945486e-006, -9.67484448e-006,
          -3.55479824e-006, 1.39755093e-006, 2.26609541e-006,
          -4.69157476e-006, -1.36239828e-006, 3.50815498e-007,
          -2.08491247e-006, -9.31871000e-006, -7.73006741e-006,
          -8.53027132e-007, 1.35090579e-006, 1.44979708e-007,
          -3.67034636e-006, -5.08691755e-006, -6.12641486e-007,
          2.04033631e-006, -1.27409851e-006, 1.69420093e-006,
          -9.13945826e-007, -3.33784578e-006, -6.67047800e-007,
          -4.07378081e-007, -1.25983229e-006, 5.40613109e-006,
          2.33173836e-007, -2.10233543e-006, 5.37545930e-006,
          4.85157261e-006, 2.09311452e-006, 1.49511618e-006,
          -3.65052358e-007, -7.12097119e-007, 7.09202084e-007,
          3.87411546e-006, -5.90893842e-006, -1.15950104e-006,
          1.83064060e-006, 3.30948001e-006, 8.56784766e-007,
          -3.14907169e-007, 3.23310542e-006, -3.19408764e-006,
          1.40235090e-006, -9.74932618e-007, -3.46154536e-007,
          -1.32991715e-006, -3.47185414e-006, -3.56584246e-006,
          -5.61488105e-006, 2.24315522e-006, -2.06028380e-006,
          -4.00501813e-006, 5.75784316e-006, 3.01836872e-006,
          3.77937658e-006, 5.22367645e-006, -4.26757151e-006,
          -1.07585180e-007, 3.37609254e-006, 4.81290772e-006,
          -5.26225767e-006, -1.75449691e-006, -9.66699645e-007,
          -2.98834334e-006, -2.55528676e-006, -1.79883159e-006,
          -1.33366098e-006, -1.08091194e-006, -3.36745711e-006,
          -1.22993981e-006, -7.37666028e-007, -5.12481984e-006,
          3.26921190e-006, -5.83588826e-006, -2.55353416e-006,
          -2.23459642e-006, 2.88465731e-006, -3.71183705e-006,
          6.03424894e-007, 1.18799301e-006, -4.09437462e-006,
          -3.08841300e-006, 6.28093403e-007, -2.90050662e-006,
          -1.69563407e-006, -2.26384441e-006, -2.29659736e-006,
          5.75904824e-006, 5.90065156e-006, -2.25046961e-006,
          -3.02828312e-007, -5.18720935e-006, -4.07300331e-006,
          6.58563295e-007, -1.39234555e-006, -8.75107560e-007,
          -2.25714984e-006, -1.71776628e-006, -2.80333506e-006,
          -4.25308235e-006, 1.85815907e-006, 2.09631185e-006,
          -6.93171933e-006, 7.12850294e-007, 2.56013163e-006,
          -2.45888782e-006, -2.91827564e-006, -2.65867152e-006,
          2.00189538e-006, -7.21044307e-006, 1.93400524e-006,
          2.39192741e-006, -5.66630706e-006, -1.98960350e-008,
          4.02310843e-006, 4.94730830e-006, 9.66375069e-007,
          -1.01855585e-005, 7.37756272e-006, 1.90858387e-007,
          -4.82757559e-006, -5.85325870e-006, 3.05198932e-006,
          -3.32928744e-006, -8.67837207e-006, 2.92649497e-006,
          4.19900380e-006, 3.73088028e-006, -1.66322513e-006,
          -8.49030494e-006, 8.89342644e-008, 3.16685396e-006,
          -4.29239708e-006, 2.46957461e-006, -4.83137410e-006,
          -2.07455196e-006, 5.26448275e-007, -3.60010881e-006,
          -2.61567675e-006, -4.56169391e-006, 6.15505223e-006,
          -6.27097234e-006, 3.74353242e-008, -3.22930589e-007,
          -1.64280527e-006, -3.98226530e-006, 3.22199412e-006,
          4.99098611e-008, -1.79018116e-006, -8.53856727e-006,
          1.01202966e-006, -2.94628126e-006, 3.03435968e-006,
          -3.98612747e-006, -3.99113287e-006, 2.95168593e-006,
          -1.51750180e-006, -2.46183458e-006, 4.33454397e-006,
          5.82963764e-007, -1.54852933e-006, -2.69017823e-006,
          -2.77996287e-006, 4.20653669e-006, -1.44855051e-007,
          2.40047086e-007, 2.53763869e-006, -1.70205124e-006,
          5.88937564e-006, -2.27111127e-006, -3.10522978e-006,
          1.09226357e-006, 1.20040042e-007, -2.11064707e-006,
          -3.76328762e-006, -2.55051214e-006, -4.86311001e-006,
          -2.17033175e-006, -1.32185892e-006, -5.51698349e-006,
          -4.34274938e-007, -2.95502900e-007, -6.64683330e-006,
          -1.00342663e-006, -2.89214699e-006, -2.64614732e-006,
          -4.50681273e-006, 4.49811569e-006, -2.89596255e-006,
          -5.10560949e-006, -9.31340196e-007, -2.26576822e-006,
          2.94244228e-006, -3.15804277e-006, 1.94797892e-007,
          -1.09595101e-006, -5.82077791e-006, -2.00511877e-007,
          -1.84519502e-006, -6.76392938e-006, -5.46586944e-006,
          2.95936303e-007, -4.22631547e-006, -2.64647980e-007,
          -2.15807086e-006, -9.67833967e-006, -1.89284742e-006,
          3.00709644e-007, -3.83588076e-006, -4.82281757e-006,
          -4.05525680e-006, -6.75769479e-006, -3.26450436e-006,
          -6.15010231e-006, -2.32359028e-007, 1.27135206e-006,
          -3.74899219e-006, -1.06551840e-006, 1.35356038e-006,
          -1.89829848e-006, -3.66301009e-007, -2.82800852e-006,
          3.46926555e-007, -4.46659305e-006, -2.00617023e-006,
          -2.93416133e-006, -2.51983147e-006, -2.92524783e-006,
          -4.13771568e-006, 1.63751224e-006, 1.02087813e-006,
          3.04178229e-007, 1.30505668e-006, 2.41107784e-007,
          2.96515083e-007, -1.66500172e-007, -3.24969687e-006,
          6.43471651e-007, -3.31821184e-007, 8.70718566e-007,
          -3.68768769e-006, -6.35520155e-006, -5.01698605e-006,
          -5.25195264e-006, 2.07950893e-006, -1.53576480e-006,
          4.22195626e-006, -2.43855879e-006, 3.23729205e-006,
          -5.11703229e-006, -6.50305765e-006, -4.61268473e-006,
          -1.86854652e-006, -4.50728294e-006, 3.17941794e-006,
          1.50393953e-006, -7.96055247e-007, -4.72793272e-006,
          4.82541009e-006, -7.24910706e-006, 9.71390577e-008,
          -1.92906191e-006, -5.46703814e-006, 7.53482254e-007,
          -2.63765583e-006, -4.96049825e-006, -3.06019047e-007,
          2.44894096e-007, 3.30879948e-006, -7.88318994e-006,
          -3.28977103e-006, -1.47037827e-006, -3.00585589e-006,
          -4.12400595e-006, 1.34890490e-006, -1.74675017e-006,
          -8.84665099e-007, -7.60845614e-006, 2.41223711e-006,
          1.58034049e-006, -4.65514677e-006, -2.27167263e-008,
          2.32904131e-006, -4.56957650e-007, -3.16665205e-006,
          6.87244096e-007, -2.30109413e-006, -2.00425256e-006,
          -5.65225491e-007, 3.18028856e-006, -1.42868134e-006,
          1.66908501e-006, -1.34402160e-006, -4.89293427e-007,
          -1.12950806e-006, -1.65701636e-006, -8.04646163e-007,
          -1.20354855e-006, 3.74932188e-006, -4.33077048e-007,
          -3.34460128e-006, 1.78286527e-007, 1.61518770e-007,
          -1.62032018e-006, -2.00094701e-006, 1.89317200e-006,
          -4.12639201e-006, 1.35342441e-006, 5.98976499e-007,
          3.54732992e-006, 8.26146106e-007, -2.53594908e-006,
          -7.21553852e-006, -1.48756999e-006, -3.72391742e-006,
          2.64193227e-006, -6.34749404e-006, -1.71399563e-006,
          -3.12901307e-006, -2.29022180e-006, -3.27411016e-007,
          1.21296932e-006, -4.38874906e-007, 3.44890873e-006,
          -4.64430605e-006, -5.90694469e-007, 9.49395087e-007,
          -2.07046537e-006, 4.98049349e-006, -1.46251057e-006,
          -2.68827580e-006, -7.61213596e-006, 1.10707811e-006,
          -5.02592547e-006, -1.26224120e-006, 1.53715609e-006,
          -4.71980911e-006, 5.40629935e-006, -6.39748532e-006,
          -6.67440190e-006, -5.62592595e-006, -3.65917663e-006,
          1.67896007e-006, -3.47601076e-006, 3.27136127e-006,
          -1.15443413e-006, -3.81819336e-006, 1.89472075e-006,
          -1.04829826e-006, -2.22613676e-006, 2.47013145e-006,
          1.98803761e-007, -8.75049807e-007, -5.60373201e-006,
          -2.38235316e-006, 4.40557898e-007, -1.68793656e-006,
          -1.06743778e-006, 4.53341471e-008, 3.47122113e-006,
          6.15526142e-006, -3.67361258e-006, -1.31590014e-006,
          4.63047400e-007, 1.86400507e-006, -6.72891701e-006,
          2.65767017e-006, 3.19224114e-006, -3.36979065e-006,
          -1.83003488e-006, 1.85302656e-006, -1.09788985e-007,
          -2.45101683e-006, -7.13160216e-006, 1.20701912e-007,
          4.64696586e-006, 6.16568286e-007, -1.45188596e-006,
          3.36826929e-007, -1.64597986e-006, -5.52934807e-006,
          -5.15828162e-007, 3.10069299e-006, 1.92038442e-006,
          -2.26865859e-006, 8.45251861e-007, 3.04862829e-006,
          3.04656442e-006, -2.10757003e-006, -6.55155759e-007,
          2.36902565e-006, -7.87226691e-006, 6.43568910e-006,
          -5.28321016e-006, 8.75086471e-007, -3.17630588e-006,
          4.84904285e-006, -2.33547894e-006, -1.99679675e-006,
          7.67760639e-007, -2.49470077e-006, 1.59116280e-006,
          3.10449536e-006, -3.71273450e-006, 2.45711590e-006,
          -1.45537626e-006, 4.99996951e-008, 2.78819516e-006,
          -1.34084200e-006, -3.82146936e-006, -2.54015345e-006,
          -3.13211535e-006, -1.68352676e-006, -1.45276317e-006,
          -3.03625171e-007, 4.90687489e-006, -1.70235046e-006,
          3.39933536e-006, 5.51747098e-006, -5.47297941e-006,
          2.26945440e-006, -2.25658778e-006, -7.16826435e-006,
          -4.51117103e-006, -5.81960285e-006, -9.91545448e-007,
          1.09623095e-007, -6.38270194e-007, 3.01497812e-006,
          -9.98845280e-006, 4.02022624e-006, 1.91450340e-006,
          -4.96439998e-006, -4.33951328e-007, -1.77031734e-006,
          3.55550310e-006, 4.89609818e-007, -6.65777122e-007,
          -7.00202554e-006, 9.54809593e-007, -4.52339555e-006,
          3.27350836e-006, -2.28573913e-006, 1.31983171e-007,
          -3.31417397e-007, -3.27819157e-006, -3.01404089e-006,
          1.69091027e-006, 1.38167275e-006, -3.39103212e-006,
          -1.12705891e-006, 1.06323898e-006, -1.38765040e-006,
          2.72975876e-006, 1.49993912e-006, -7.88973011e-006,
          2.83908122e-007, 2.16745192e-007, -3.93232222e-006,
          2.12418990e-006, -2.55234522e-006, 2.71799854e-006,
          -5.75490276e-007, -9.84389771e-007, -3.18364800e-006,
          -2.72654870e-006, -7.49989113e-006, -6.54386849e-006,
          -1.77194818e-006, -1.79495896e-006, 2.48211336e-006,
          -1.63675929e-006, 2.50385415e-006, -4.13216839e-007,
          3.50150071e-006, -7.38610538e-007, 2.68525787e-006,
          4.08727374e-006, 5.53187419e-006, 4.42230521e-006,
          -2.53463986e-006, 1.52980579e-006, -1.85755596e-006,
          2.66697384e-006, 2.36322350e-007, 1.48889080e-006,
          -1.31915181e-006, -2.02348792e-006, -1.70033945e-006,
          5.33073762e-006, 2.65046378e-006, 3.67818893e-006,
          -2.91327160e-006, 1.31382808e-006, -4.78406946e-006,
          -3.45830495e-006, 2.47150888e-006, -3.28572787e-006,
          -2.66939151e-006, -3.25444648e-006, 9.18406045e-007,
          4.75479283e-007, 1.33691117e-006, 2.58813975e-006,
          1.31720219e-006, -5.03709487e-007, 1.25793406e-006,
          7.77888363e-006, -1.42780686e-006, 5.18114530e-006,
          6.40226654e-006, 2.99537851e-006, -4.90854381e-006,
          -4.44504803e-006, 1.26137337e-007, 9.44491717e-007,
          -3.69844179e-006, -1.90382877e-006, 7.33023597e-008,
          -3.72692944e-006, 2.24962241e-006, -2.84646148e-006,
          4.06843219e-006, -1.42049396e-006, 8.36642542e-008,
          -1.25563065e-006, 3.22182018e-006, 3.41042914e-006,
          -4.17715410e-006, 6.85820680e-007, 2.45585625e-006,
          -4.00615272e-006, 7.78016602e-006, 3.18660409e-006,
          -1.91958222e-007, 8.36467507e-007, -2.66925554e-006,
          2.01697412e-006, -9.60044417e-007, 1.43076807e-006,
          4.69234874e-006, -1.18859055e-006, -3.10841256e-006,
          -1.97967188e-006, -2.51960660e-006, -2.70965984e-006,
          2.42437551e-007, -1.66892187e-006, -1.97982035e-006,
          -2.33053947e-006, 3.74483898e-006, 2.46612422e-006,
          -2.55105238e-006, -9.38632070e-008, 5.40304427e-007,
          -3.54318195e-006, -2.26941907e-007, -2.78847983e-006,
          -1.81813414e-006, 1.19903586e-006, -3.19480478e-006,
          -2.38815505e-006, -5.56818532e-006, -8.76382785e-007,
          2.85886586e-006, 7.86417047e-007, -1.25553402e-006,
          -2.33279161e-006, -2.80676750e-006, 5.33325283e-006,
          1.16713068e-006, 4.17215318e-007, 2.10570988e-006,
          -8.64886260e-007, 3.02263879e-006, -4.45195747e-006,
          1.83808345e-006, -2.64728169e-006, 7.13333293e-007,
          -3.38696350e-006, -4.50511016e-006, -1.84436942e-006,
          -3.18605345e-007, -3.03335901e-006, -3.53603946e-006,
          2.24323958e-006, -4.26390488e-006, 1.56088242e-006,
          -6.62871298e-006, 3.13233204e-006, 1.31171794e-006,
          -1.25762608e-006, 5.16435512e-006, -2.15830141e-006,
          -4.03372815e-006, 3.65694814e-006, 2.38787243e-006,
          3.28339252e-006, 1.37465705e-010, 4.00863382e-006,
          3.51344602e-006, -1.29527484e-006, 1.43361632e-007,
          4.01183541e-007, -1.78653113e-006, 2.08988376e-006,
          4.79342134e-006, 1.59000842e-006, -1.77062532e-006,
          -8.13252700e-006, -3.50729010e-006, 5.49322567e-006,
          -2.26517909e-006, -1.83842837e-006, 1.34282493e-006,
          -3.46012280e-006, -1.53136602e-006, -1.18272976e-006,
          -3.23650852e-006, -6.87836746e-006, 5.69880558e-006,
          -1.24592236e-006, -8.37320954e-007, -4.65383710e-006,
          2.77267930e-007, -2.01569878e-006, 2.53917710e-006,
          -3.43199463e-006, 2.00752561e-006, 5.06654806e-006,
          3.11847293e-006, -6.98126541e-007, 3.28242913e-006,
          -4.62301659e-006, 2.40231066e-006, -7.75597618e-006,
          -7.53429686e-006, 1.96965630e-006, -4.16615558e-006,
          6.87516433e-007, -5.32295053e-006, 8.60796163e-008,
          3.44080263e-006, -3.74346564e-006, -1.34399659e-006,
          3.15967918e-006, -2.98827445e-006, -4.70994928e-006,
          1.93028427e-006, -3.08296853e-006, 6.00212445e-007,
          -1.44401463e-006, 4.83456415e-006, -4.80330436e-006,
          -4.18667952e-007, 4.37887229e-006, -4.93926927e-006,
          -2.88692331e-006, 1.58173214e-006, 4.07782636e-006,
          -2.82345877e-006, -7.99097234e-006, 1.28339343e-006,
          3.46549041e-006, -2.61242371e-006, -2.02297372e-007,
          -1.46907337e-006, 1.79908193e-006, -4.07668904e-006,
          8.18031276e-006, 4.91769561e-006, -3.82647158e-006,
          -3.07112555e-006, -6.67119411e-006, 4.97732253e-006,
          8.38900723e-006, -5.54898907e-006, -6.18843444e-007,
          2.72749116e-006, -6.65390371e-006, -2.50498761e-006,
          2.59139892e-006, -2.35789071e-006, -2.64898563e-006,
          -6.51995742e-006, -1.72655788e-007, -1.34220920e-006,
          -6.77666719e-007, 1.58760190e-006, -2.09131917e-006,
          -4.29758620e-006, -3.08866697e-006, 2.86820114e-006,
          -1.37680058e-006, -2.14320607e-006, 5.15977763e-006,
          3.53032306e-007, 1.61081607e-006, 4.20103788e-006,
          5.15364763e-006, -1.56052056e-006, 5.00850149e-007,
          1.27767601e-006, -6.90695174e-007, -4.45374599e-006,
          6.52953486e-006, -2.63551306e-006, -1.26859356e-006,
          2.82729638e-006, 3.77174638e-006, 1.75509831e-006,
          -9.82109850e-006, -2.62383674e-006, 4.10115433e-007,
          -2.74629815e-006, -3.41529540e-006, -4.05217770e-006,
          2.05225774e-006, -1.12503976e-007, -8.86893019e-007,
          1.88353374e-006, 3.83037832e-006, -3.65739140e-007,
          -2.22780159e-006, 8.30616136e-006, -6.23063727e-007,
          -1.21099526e-006, -1.12728821e-006, 3.70993553e-006,
          -2.76911078e-006, -3.19189144e-006, -8.09186361e-007,
          -4.68089820e-006, 7.19363697e-008, 3.63347112e-007,
          3.27367297e-006, -2.95456152e-006, -4.73996761e-006,
          2.95690052e-006, 2.33402693e-006, -5.34958644e-006,
          -2.44110220e-006, -4.66669417e-006, 3.19628930e-006,
          -2.81475650e-006, 3.65811474e-007, -6.06082494e-006,
          6.68758321e-006, -2.56009093e-006, -2.21901882e-006,
          -4.39240836e-007, -2.45741330e-006, -2.64583741e-006,
          -8.80477000e-006, -5.20735625e-007, -1.98623547e-006,
          3.02470244e-006, -5.77503261e-006, 5.49249808e-006,
          7.61376168e-006, 2.36581809e-006, -1.28244437e-006,
          -2.03744364e-008, 5.27714792e-006, 2.05196187e-007,
          2.10903931e-006, -4.70766918e-006, -9.50405308e-007,
          -8.29816872e-006, -6.79039022e-006, 1.23187377e-007,
          -3.79103403e-006, -1.27359431e-006, 2.44139301e-006,
          3.92174252e-006, -7.07369009e-006, 3.83720317e-006,
          -2.79701112e-006, 6.21696836e-006, 1.15654825e-006,
          2.34502795e-006, -5.26896883e-006, -3.27478051e-006,
          2.77940785e-006, 1.39561564e-006, -1.92468315e-006,
          2.84092971e-006, -1.77027846e-006, 1.63519644e-006,
          -1.46381399e-006, 2.04032426e-006, 3.93747450e-006,
          -2.38345774e-006, -9.37694608e-007, 2.07085145e-006,
          9.45851184e-007, -4.89658805e-006, 7.29217447e-007,
          -1.95851626e-007, -3.99507371e-006, -3.92439961e-006,
          -4.19497292e-006, 8.51013453e-007, 1.91853132e-006,
          -5.72219960e-007, -2.79778465e-006, 7.87541467e-007,
          -9.08969412e-007, -2.83489794e-006, -4.19378830e-006,
          -1.67783651e-006, -2.94003996e-007, 2.55804025e-007,
          7.64520394e-007, 1.81471307e-006, 6.16967327e-007,
          2.84490261e-006, 4.89285185e-007, -4.26578595e-007,
          -5.89547653e-006, 6.11555379e-006, -5.88255671e-006,
          -1.42885335e-006, -2.92068364e-007, -5.27374596e-006,
          -4.76581636e-006, -8.72138298e-006, -5.44974057e-007,
          -3.31780393e-006, -4.09177028e-006, -6.39314123e-007,
          -2.15879891e-006, 2.39628935e-006, 5.06047672e-006,
          -2.94355300e-006, -3.61601519e-006, -3.70993848e-006,
          1.09272548e-006, -1.95791381e-006, -1.31694958e-006,
          5.50559980e-006, 4.39393853e-006, -1.45479430e-006,
          1.44593207e-006, -5.46040610e-006, 5.09320535e-006,
          1.51829863e-006, -8.66624305e-007, -2.64734581e-007,
          -2.77855179e-006, -6.73675413e-006, -4.31727312e-006,
          -5.34179208e-006, -2.48119676e-007, -4.56699610e-007,
          6.05375681e-006, -6.07617494e-006, -3.94668359e-006,
          -3.91320100e-006, -2.19968979e-006, -1.51916799e-006,
          1.86513478e-006, 9.00370594e-007, -2.13641124e-006,
          9.60412649e-007, 2.01838679e-006, 3.24099062e-007,
          1.12080647e-006, -7.68008135e-007, 1.16787783e-006,
          -2.60604997e-006, -1.14171712e-006, -3.96853193e-006,
          2.69466796e-006, 4.68261021e-008, 1.33307856e-006,
          4.85271023e-008, -1.88156619e-008, -2.07248945e-006,
          -3.59703904e-006, 3.38804853e-007, -4.32252637e-006,
          -4.85523344e-007, -2.34870640e-006, -2.72341754e-006,
          -6.51954315e-006, -2.77255845e-006, 2.28320437e-006,
          -8.15638714e-007, -5.27393013e-006, -1.57928105e-006,
          1.74891829e-006, 2.05799893e-006, -5.59694399e-006,
          6.87346073e-008, -2.80656332e-006, -1.31150969e-007,
          6.26938288e-007, -3.70871317e-006, 1.59328397e-006,
          -1.11751739e-007, -2.61217656e-006, -2.37165114e-006,
          -1.77711490e-006, 2.67359997e-006, -3.75260652e-006,
          -4.74640558e-007, 1.88283775e-006, -1.71783711e-007,
          -2.93631501e-006, -1.48414188e-006, -1.51863696e-006,
          -1.62702690e-006, -1.01540900e-006, -3.91709051e-007,
          -4.93068683e-007, 4.24281723e-007, -1.07831511e-006,
          4.93348580e-007, 7.31267028e-006, -2.59979993e-006,
          -1.48581125e-006, -1.19558294e-007, -4.91321043e-006,
          3.12665088e-006, 4.59734611e-006, -3.17644049e-006,
          -3.22063579e-006, -5.15895317e-006, -5.05275146e-008,
          -3.86227975e-006, 1.22148163e-006, 2.91117203e-006,
          -1.55413125e-006, -2.66692905e-006, -4.12469080e-006,
          -5.02593457e-006, 3.46193838e-006, -8.21623701e-007,
          -3.74304682e-006, -3.96450696e-006, 2.96816415e-006,
          -4.34832145e-006, -1.55055909e-006, 1.68486906e-006,
          1.19139429e-006, -1.19155027e-006, 1.66844347e-006,
          3.18437742e-006, -2.00257364e-006, -1.76863091e-006,
          -1.32496567e-007, -2.59062426e-006, -3.30738953e-006,
          -5.94369521e-006, -5.00190117e-006, -7.89392288e-006,
          -6.30124532e-007, 8.82476513e-007, 5.56310113e-007,
          -1.58739067e-006, -8.13435975e-007, -2.45601404e-006,
          2.48246693e-007, -1.81385747e-006, -1.31952083e-006,
          -1.36065910e-006, 7.77164360e-008, -5.86679471e-006,
          -3.23035152e-007, -2.01533362e-006, -2.99654539e-006,
          -5.71133910e-007, -5.18168054e-006, 1.52677842e-006,
          1.59737027e-007, -4.74747958e-006, -4.07349808e-006,
          -2.76102605e-006, -2.03176933e-006, -3.01812906e-006,
          -5.29005410e-006, 4.56513988e-007, 4.02661180e-006,
          -2.59390936e-006, -6.28238058e-006, -1.67370979e-006,
          2.00557702e-006, -3.39249209e-006, 2.69598263e-006,
          1.45551792e-006, 1.84872522e-006, -4.88579053e-006,
          -1.13871056e-006, 1.70612259e-006, -3.06394236e-006,
          -7.70370548e-007, -5.75555441e-006, -6.38265874e-007,
          -1.16575620e-006, 2.91043170e-006, -1.10069341e-005,
          -4.21541972e-006, -4.37918607e-006, 3.61468346e-006,
          -4.65561243e-006, -6.74748662e-007, -3.60085710e-006,
          -7.05987259e-006, 1.24467374e-006, -1.14548811e-006,
          -3.24085954e-006, 2.54251768e-006, -6.32276851e-006,
          6.91440448e-007, 2.09728933e-006, 6.07506507e-008,
          2.86313548e-006, 3.66502013e-006, 1.15129592e-006,
          -2.57686020e-006, 3.70751945e-006, -3.96874248e-006,
          1.18256185e-006, -2.46400373e-006, 1.43089392e-006,
          -1.70101202e-006, 1.16332797e-006, 1.11891200e-006,
          -1.16718684e-006, -1.02186050e-006, -5.07576317e-007,
          -2.61606806e-006, 7.43635837e-007, 4.88803516e-006,
          -2.46765035e-006, 5.37916458e-006, -6.86104670e-007,
          4.82574842e-006, 3.27538896e-006, -3.07507025e-006,
          1.64982487e-006, -3.93051141e-006, 3.08555968e-006,
          4.06350682e-006, -1.91410595e-006, -1.85645646e-007,
          2.51051483e-006, -1.01855414e-006, 2.44828698e-007,
          -1.51684719e-006, 1.83658312e-006, -1.42785939e-006,
          -3.38393029e-008, -2.87284183e-006, 2.69634683e-007,
          -4.02147589e-006, 9.02715669e-007, -3.67297594e-006,
          -3.17890022e-006, -8.46610476e-007, -1.78673233e-007,
          -7.79607717e-007, -2.80968038e-006, -3.49205493e-006,
          -5.50854065e-006, 5.27283055e-006, 3.96324322e-006,
          -3.62153560e-006, -2.64204715e-007, 5.40796748e-007,
          1.19971423e-006, -8.27250096e-006, -1.46443745e-006,
          -1.51185350e-006, 1.37352163e-006, 6.24183201e-007,
          1.34508844e-006, -3.56951006e-007, -3.61888738e-007,
          2.43343197e-006, 3.97066106e-006, 4.87897250e-006,
          6.76480454e-008, 5.83080100e-006, 1.41194448e-006,
          -3.15377497e-006, 2.06223194e-006, 2.56901490e-006,
          -1.71913007e-006, -3.54052236e-006, 2.03228365e-006,
          1.31160402e-006, -2.57866145e-006, -2.11953602e-006,
          5.40007068e-006, -7.84615531e-006, 4.28009798e-006,
          -2.20672337e-006, 2.51260553e-006, 2.87280528e-007,
          -1.70546934e-006, -8.73705233e-007, -1.56461397e-006,
          4.12604504e-006, 1.00456259e-006, -4.14202674e-007,
          1.05314234e-006, -1.42145086e-006, 4.32436900e-006,
          -7.24923120e-006, 4.43010464e-007, -4.56848466e-006,
          -1.53108090e-006, -1.48798358e-006, 7.52592655e-007,
          -1.43452678e-006, 2.32656203e-006, -2.15262867e-006,
          -8.00284579e-006, -3.98821726e-007, -2.06953564e-006,
          -4.91551873e-006, 7.00330077e-007, -4.30695172e-006,
          -3.35655237e-008, 4.27855048e-006, -9.81855237e-007,
          -5.78183744e-007, 1.24872531e-006, -6.85572957e-007,
          -2.94510050e-006, -4.24956124e-006, 2.10089502e-006,
          -3.25532028e-006, -2.43054774e-006, -8.39803306e-007,
          -2.55752866e-007, 7.77354728e-007, -2.89374611e-006,
          -4.73954924e-006, -2.18064611e-006, -3.67887174e-006,
          3.93878281e-006, -4.98074940e-007, -2.16142871e-006,
          7.28092937e-006, -3.61389721e-006, 6.02191278e-007,
          2.32171806e-006, 2.57274473e-006, -8.61186095e-007,
          -2.35350558e-006, 7.01339957e-007, 3.53344696e-008,
          -4.01833313e-006, 8.04336105e-006, -5.05376590e-007,
          -1.02639046e-006, -4.82610949e-006, -5.37444021e-006,
          9.98910082e-007, 4.35961465e-006, 1.45045919e-006,
          -2.14421857e-006, -4.28576732e-006, -4.18364061e-006,
          -4.59886814e-006, 7.76278341e-007, 7.02747138e-006,
          -9.48760075e-008, 3.75191416e-006, 8.84245492e-006,
          -2.14827560e-006, -3.28168744e-006, 3.26703048e-006,
          2.20084553e-006, -3.55294856e-006, 6.60966805e-007,
          3.28038163e-006, -7.82009010e-007, 3.11049712e-006,
          -1.89266018e-006, 2.06692698e-006, -4.15676777e-006,
          3.44518094e-006, -1.54619204e-006, 8.87072702e-007,
          1.78708046e-006, 3.36810467e-006, 3.91674212e-006,
          1.02981566e-007, -5.88604507e-006, -4.93539233e-007,
          1.70270073e-006, -2.15953719e-006, -6.42513726e-007,
          -9.11299878e-007, -8.39712754e-007, -4.33468949e-006,
          -6.86418389e-007, 1.30127216e-006, 9.15625321e-007,
          -9.04483898e-007, 2.35769767e-006, 2.20650077e-006,
          -5.38041331e-006, -1.39673671e-006, -4.12166446e-006,
          5.20961862e-007, -4.39063524e-006, 1.86642762e-006,
          3.55513998e-006, 2.20869947e-006, -1.83845657e-006,
          1.88007118e-006, -2.71145018e-006, 2.29904435e-006,
          -4.02148908e-006, 4.64482491e-006, -5.94494168e-006,
          2.11326252e-007, -2.69696284e-006, 1.26463692e-006,
          -9.24526660e-007, -3.88648050e-006, -3.56576629e-006,
          -2.50468293e-006, -1.42746785e-006, 1.25205872e-006,
          -7.76849276e-007, -3.12915887e-007, -1.17231821e-006,
          -3.74202682e-006, -2.27795408e-006, 5.29700941e-008,
          -3.53082987e-006, 3.67075904e-006, 9.96642029e-007,
          1.96010069e-006, 2.62413437e-006, -4.00255567e-006,
          -2.58666319e-006, -5.17747185e-006, -3.17508102e-006,
          -6.00321891e-006, -6.43094563e-006, 5.19854984e-006,
          -3.68193878e-006, 4.14464375e-006, -4.62518437e-006,
          -8.34736511e-006, 1.41521639e-006, 3.29418140e-006,
          -6.38850452e-006, -6.50791890e-007, -6.06151389e-007,
          -2.41323596e-006, -1.40174018e-006, -3.96815449e-006,
          8.42488498e-006, -1.32367313e-006, -4.41883140e-006,
          -5.09257734e-006, 4.29981384e-008, 1.47865296e-006,
          6.51498283e-007, -5.90616935e-007, 2.17851220e-006,
          -5.49356946e-006, 2.93450307e-006, -8.51908233e-009,
          8.68264806e-007, -3.14919771e-006, -1.84443888e-006,
          -9.28592314e-009, -1.40613054e-006, 6.14064959e-007,
          2.18692276e-006, 4.90710909e-006, 8.46464843e-007,
          5.76790057e-007, -1.39962037e-006, -3.17038882e-007,
          -3.55774137e-006, -1.38126623e-007, -4.16883586e-006,
          4.92012532e-006, 1.13998647e-006, 2.14471356e-006,
          -9.77872503e-008, 1.28279282e-006, -5.70787824e-006,
          2.11342308e-006, -2.28062231e-006, 1.22883853e-006,
          -2.76490505e-006, -3.14856334e-006, -1.91511663e-006,
          1.83724660e-006, -1.47466176e-006, 1.60706588e-006,
          -3.30303101e-006, 1.47273499e-006, 2.56247176e-006,
          -6.68255836e-007, -1.34441507e-007, 1.47934111e-006,
          5.78222352e-006, -6.67479298e-007, 2.71813587e-006,
          -2.46126865e-006, 7.63253922e-007, 5.56373288e-006,
          1.72169894e-006, 2.90099479e-006, 3.57434175e-007,
          5.10426980e-006, -5.07152845e-006, -3.56672740e-006,
          1.63680090e-006, 4.01965508e-006, 2.37546328e-006,
          1.95754001e-006, -2.70124383e-006, 4.91840410e-006,
          -3.77602737e-006, -4.21949744e-006, 4.33660216e-006,
          1.98724888e-006, 9.14014379e-007, 6.39563450e-006,
          2.27731630e-006, 2.39230280e-006, -2.38052985e-006,
          1.99096553e-006, -1.79537619e-006, -5.72985437e-006,
          4.56573332e-007, 2.26200564e-006, 5.67042946e-007,
          -3.80999381e-006, -3.33142088e-006, -6.12598251e-006,
          -3.69363852e-006, 1.01678847e-006, -2.21952337e-006,
          2.84963426e-006, -3.45979856e-006, -3.18903381e-006,
          -1.16006765e-006, -3.05163326e-006, -5.87013631e-007,
          -4.24114387e-006, -1.04635283e-005, -9.75430794e-007,
          -3.19002788e-006, -3.51917379e-006, -1.27410453e-006,
          -2.89047694e-006, -3.63348431e-006, 1.46029856e-006,
          2.65869062e-006, -5.43782562e-006, -7.19042021e-007,
          -1.22737049e-006, 1.99721876e-006, 5.30617626e-006,
          -1.13747069e-006, -2.58983027e-006, 1.38037581e-006,
          -9.73300871e-007, -3.32329614e-006, 3.24748248e-006,
          -3.28385568e-006, 6.48147818e-007, -2.40422037e-006,
          -2.72449438e-006, 5.08126095e-006, -4.43335603e-006,
          -1.53739791e-006, -3.62532296e-006, -5.53498558e-006,
          3.67241796e-006, -1.61379717e-006, 1.03552600e-006,
          -3.05593107e-006, 2.55706777e-006, 1.97907207e-006,
          -6.99492466e-006, 1.90586286e-006, 2.38200892e-006,
          -4.60234287e-006, -2.72506577e-006, 4.97040992e-006,
          -7.45898276e-008, 2.43676550e-006, -1.57601914e-006,
          -9.67847100e-008, -5.84039981e-006, -5.07209450e-007,
          -1.03503839e-006, -1.83071791e-007, 1.95724760e-006,
          2.49985783e-006, -6.98201529e-006, 2.87588728e-006,
          -5.36969310e-006, -2.27599548e-006, -1.67792371e-006,
          -3.24840630e-006, -9.67096184e-007, 8.03950400e-007,
          1.77077553e-007, 9.80133109e-007, -4.63917240e-006,
          4.88667774e-006, -4.53090843e-006, -5.48241530e-007,
          2.10844996e-006, -3.91117692e-006, 1.74722425e-006,
          -7.18159936e-006, -3.27389307e-006, -1.13320289e-006,
          -9.11138898e-007, -6.36165737e-007, -2.23174311e-006,
          4.62689877e-006, 1.89012053e-006, -1.76778849e-006,
          -6.81982101e-007, 2.28947656e-007, 4.29140391e-006,
          -3.70193743e-006, 2.59302851e-007, 2.86418555e-007,
          -1.44463144e-007, -2.58481964e-006, -4.64727736e-006,
          -1.07526978e-006, -8.65332368e-006, -5.34703486e-006,
          1.03058869e-006, -9.09057917e-007, -4.08764527e-006,
          -7.45704881e-007, 3.78451887e-007, -5.48573189e-006,
          1.51448475e-007, 1.26595341e-006, 2.03572017e-006,
          -3.83278393e-006, 4.88428270e-007, 3.26083477e-006,
          4.44546413e-006, 1.37098550e-006, -3.68626866e-006,
          -5.13247414e-007, -3.56624946e-006, 2.57451620e-006,
          -1.15936018e-006, -5.41660120e-006, 2.71820227e-006,
          -2.90711955e-006, 1.59157094e-006, 1.45236652e-006,
          -9.13405131e-007, 2.09533391e-006, 1.82658107e-006,
          -5.52390384e-006, -1.77796562e-006, -4.99849421e-006,
          1.28379395e-006, 3.24520283e-006, -1.30269683e-007,
          3.31070805e-006, -2.11008228e-006, 2.81149568e-007,
          -3.36023686e-006, -6.18164722e-006, 2.07661674e-006,
          3.22376354e-006, 1.30874105e-006, -4.52883432e-006,
          1.60115809e-009, 1.23417954e-006, -2.52953782e-006,
          7.07070569e-007, -4.75418602e-007, -3.78141794e-006,
          5.22114715e-006, -4.41323408e-007, 4.89182230e-006,
          3.42351200e-006, -1.35418145e-006, 3.61999696e-006,
          -1.33078140e-006, -3.46848265e-006, -6.04961269e-006,
          -2.32090974e-006, -2.16037029e-006, -1.45235720e-006,
          -5.62154355e-007, -1.21801770e-006, -5.40042493e-007,
          4.74488388e-007, -8.99680913e-007, -6.50339700e-007,
          8.89689034e-007, 1.10056658e-006, -2.82084443e-006,
          3.05144658e-006, 1.37289828e-006, -5.58478064e-007,
          1.21686264e-006, 2.54973293e-006, -2.21849996e-006,
          -2.14158808e-006, -1.76798346e-006, 4.18335367e-006,
          -5.48414801e-006, -5.76881303e-006, -3.69653236e-007,
          -3.31059960e-006, -4.68867302e-006, -1.92434823e-006,
          4.92152776e-006, -4.49948402e-006, -1.64771870e-006,
          3.90036075e-006, 3.79564722e-006, -2.80535323e-006,
          6.14067403e-006, -1.16261481e-006, -2.09158975e-006,
          -2.48529727e-006, -4.73661066e-006, 1.17358901e-007,
          3.86899592e-006, -2.73994988e-006, -2.09642326e-006,
          1.88497239e-007, 4.19959770e-006, 1.02732895e-006,
          -1.79163396e-006, -5.03125875e-007, -2.32136972e-006,
          1.28334435e-007, -7.11951884e-007, -2.99498060e-006,
          -7.79058666e-007, -9.69384018e-006, -3.26377472e-006,
          6.45402849e-007, -2.15933460e-006, 7.43858345e-006,
          1.69531222e-006, 4.91805122e-006, -8.98865267e-007,
          5.49470087e-007, -5.86454053e-006, -7.29100975e-007,
          2.76915898e-006, -1.34109905e-006, -3.79706671e-006,
          -1.47985224e-006, 2.60594857e-006, -1.45601598e-006,
          1.72229022e-006, -3.83752877e-007, -3.10349697e-006,
          2.11478255e-006, 7.96562574e-007, -7.90871127e-006,
          1.08544577e-006, -4.00903991e-006, -4.10742587e-006,
          -1.08827669e-006, 1.07108929e-006, 2.71474346e-006,
          -4.17450519e-006, -2.79941173e-006, -2.30542105e-006,
          -2.99318640e-006, -1.34921459e-006, 4.92123945e-006,
          1.25384042e-006, 2.09684868e-006, -3.77373112e-007,
          -5.03337787e-006, -3.71009520e-007, 2.60640763e-006,
          2.31407535e-006, 2.47690423e-006, 1.42726196e-006,
          -4.53153234e-006, 2.25423901e-006, -1.06786126e-006,
          -7.93352569e-007, -3.35662639e-006, -2.66846018e-006,
          3.05399726e-006, 2.96476173e-007, -4.99515727e-006,
          -3.11576719e-006, 3.75641093e-006, -4.43371027e-006,
          -8.59112220e-007, -2.99658541e-006, -1.71895942e-006,
          -6.27548934e-006, 9.63486514e-007, 2.23770803e-006,
          1.72571902e-006, -5.69675103e-006, -3.41656914e-007,
          -2.02025444e-006, -2.09722566e-006, -6.63451510e-006,
          3.14337200e-007, 1.62425556e-006, 6.50233176e-007,
          -6.01890679e-006, 2.08928964e-006, -4.50579091e-006,
          -2.56788371e-006, 4.95219126e-007, -6.91928165e-007,
          -2.72109810e-006, -3.36040756e-007, 1.92749985e-006,
          -4.38365123e-006, 3.56832129e-006, -1.53709732e-006,
          8.54457824e-007, -4.39547011e-006, -1.49934624e-006,
          -4.28128669e-006, -9.74757882e-007, -4.84864449e-006,
          3.55840848e-006, -5.22167329e-006, 4.37479912e-006,
          -1.55000373e-006, -3.24058715e-006, -5.46920728e-006,
          -8.05600030e-006, 2.98223267e-006, -5.62569176e-006,
          1.53532744e-006, -2.59095395e-006, -1.82108420e-006,
          1.15609350e-006, 4.01918015e-007, 1.84474217e-007,
          -7.27489441e-006, -2.49263621e-006, 1.18616629e-006,
          2.28748581e-006, -2.09892232e-006, -1.50381265e-006,
          1.19431377e-007, -4.92341951e-006, -5.59712021e-007,
          -6.09398148e-006, -4.24086920e-006, -3.88064382e-006,
          -4.84383190e-006, -4.72407237e-006, 4.96463781e-006,
          -2.67024234e-006, -3.12852353e-006, -1.35525534e-006,
          -2.60697107e-007, -7.34825676e-007, -3.97153008e-006,
          -2.06238042e-006, -2.51769347e-006, -6.51430753e-007,
          -3.45941157e-006, -1.92741459e-006, -9.76228534e-007,
          -8.85806185e-006, 7.27598763e-006, -3.91076355e-006,
          -3.65157166e-006, 5.85043779e-007, 4.31682764e-007,
          -1.09959615e-006, -4.61206724e-007, 2.86063710e-006,
          1.99953320e-006, 2.58236332e-006, 9.52976052e-007,
          -1.54669954e-006, 8.70798331e-008, 3.63035497e-006,
          -2.75756429e-006, -2.36666619e-006, 4.35638094e-006,
          -8.93316212e-007, 5.94414246e-007, 5.69296844e-006,
          9.65448294e-007, 3.26114161e-007, 1.61030596e-006,
          8.10122231e-007, -4.57833835e-007, 4.02340766e-006,
          -2.58567047e-006, -3.87066893e-006, -5.96183099e-007,
          -3.30174566e-006, -3.06137463e-006, 2.31682066e-006,
          -2.63969719e-006, -1.29403236e-006, 3.61563798e-006,
          -4.12085399e-007, 1.27736996e-006, 1.72975362e-007,
          3.72303725e-006, -3.63813206e-006, 1.93220058e-006,
          -1.38382575e-006, 8.70989595e-007, -1.36716574e-006,
          -1.48838762e-006, -1.52082475e-006, -3.91521962e-006,
          -1.20458571e-006, -3.01160526e-006, 1.64859117e-007,
          -4.04325374e-006, 1.24590679e-006, -1.76707175e-007,
          1.45790420e-006, -1.41147848e-006, 2.42443775e-006,
          6.78733841e-007, -4.20644574e-006, -5.90842365e-006,
          5.55095596e-007, 1.79055053e-006, -1.73488183e-006,
          2.31365311e-006, 2.53868711e-006, 8.75175942e-007,
          -5.11871758e-006, -5.88805187e-006, -2.86366941e-007,
          -1.46690240e-007, -3.66401707e-007, -1.22437825e-006,
          8.02288196e-006, -1.00130262e-006, -2.61992773e-006,
          2.87826492e-006, -7.07893741e-006, -1.31941033e-006,
          -2.87405487e-006, -5.62422535e-008, 9.67888354e-006,
          -9.46135117e-007, 2.89989498e-006, 4.12216286e-006,
          -2.38700932e-006, 3.42012015e-007, -1.86877867e-006,
          -5.15382726e-006, -4.51324740e-006, -7.13611735e-006,
          4.11944256e-006, 4.40715894e-007, -2.23902475e-006,
          -2.39034171e-006, 3.68288829e-006, -4.55501868e-006,
          -1.01433943e-005, 4.86766430e-006, -6.82357438e-007,
          2.26163002e-006, 5.08179528e-006, -4.21935465e-006,
          2.82062956e-006, -1.75109949e-006, 1.37788879e-006,
          -3.19677582e-007, 4.75297293e-006, -3.26319582e-006,
          -2.50625658e-006, -1.86536158e-006, 1.59582794e-006,
          -3.52631901e-006, -8.38522681e-007, 2.69909719e-006,
          -6.68764778e-006, -2.92306527e-006, 6.90680395e-007,
          -1.96441442e-006, 2.50299399e-006, 7.18116280e-006,
          -1.35191908e-006, -4.65884881e-007, 2.90732601e-006,
          1.85718261e-006, 4.18271696e-007, 4.54990584e-007,
          3.45653120e-007, 7.52598169e-007, 1.96322321e-006,
          1.18220498e-006, 5.82952033e-008, 6.93412994e-006,
          4.22330777e-006, -4.27174655e-006, -2.25969643e-006,
          -1.16374190e-006, 3.92548827e-006, -4.16728699e-006,
          3.09385655e-006, 6.36018058e-006, -4.01877651e-006,
          -3.46308752e-007, -4.75781235e-006, -2.41201496e-006,
          2.05598008e-006, -3.69953636e-006, -2.31601476e-007,
          8.19657942e-008, -3.84020314e-006, -2.11386624e-008,
          -2.77498270e-006, 4.17202330e-007, -4.74314311e-006,
          -3.25299538e-006, -4.67432892e-006, -1.53449457e-006,
          1.19781305e-006, -3.31267393e-006, 4.39157162e-007,
          -2.41328098e-006, -5.47346554e-006, 5.03399349e-007,
          -7.34663763e-006, 1.44625358e-006, 7.89586181e-007,
          -3.74425281e-006, 3.12868951e-006, 4.41064094e-006,
          3.63920265e-007, 1.11680572e-006, 4.47385946e-006,
          6.26011206e-006, -2.03965783e-006, 8.35155390e-007,
          -5.46429283e-006, -1.31596516e-006, 2.87620469e-006,
          -1.00269403e-006, -4.10967596e-006, -1.17475702e-006,
          2.73358114e-006, -9.36332071e-007, -1.82047160e-007,
          9.80992127e-007, -7.97604912e-007, -4.78774200e-006,
          3.29443105e-006, 2.92207937e-006, -6.61405011e-006,
          1.71950671e-006, -1.54527436e-006, -5.00057286e-006,
          -3.27630414e-006, 2.26277143e-006, 4.34314870e-006,
          -3.45020476e-006, -6.94342816e-007, 4.00391036e-006,
          -5.95277061e-006, -4.93331299e-007, -1.12151145e-006,
          -3.25205662e-007, -2.43539989e-006, 4.64390894e-007,
          -1.42569434e-006, 6.35144886e-007, 1.31826209e-006,
          3.06598099e-006, -2.15382238e-006, 1.73882063e-006,
          -1.48513800e-006, -5.69828717e-006, -3.15848251e-006,
          -7.28499708e-006, 2.67582345e-006, -1.48827371e-006,
          3.95301458e-006, 2.89578998e-006, -4.79414848e-006,
          -5.73339412e-006, -5.51867788e-006, -1.27994508e-006,
          -3.13716487e-006, 3.39277790e-006, -1.35456241e-006,
          4.84248631e-007, -4.28399471e-006, -1.29002080e-006,
          5.15748252e-006, -9.26516464e-007, -1.91702938e-007,
          4.91575383e-006, 1.05941353e-006, -2.91118113e-007,
          1.21072082e-006, 2.87272155e-006, -4.18600166e-006,
          -2.95649056e-006, -2.17477395e-006, -6.32020658e-007,
          1.39009524e-006, -6.67166250e-006, -5.42401176e-006,
          -4.53708083e-007, -3.64836319e-006, -8.18120782e-007,
          -5.58340332e-007, -4.70844634e-006, -1.39576559e-006,
          -1.78684320e-006, -3.91437243e-006, 7.11907933e-006,
          2.07948369e-006, -2.72782245e-006, -1.29381112e-006,
          -3.49670381e-006, -4.41878046e-006, 3.88500939e-006,
          1.39044448e-006, 4.01137095e-006, -6.27968348e-007,
          -4.05647734e-006, 3.57309932e-006, -8.81189681e-006,
          -4.24778500e-006, -1.67139447e-007, -2.33485412e-006,
          -3.73713078e-006, -4.63345572e-007, 2.91322544e-006,
          9.62268700e-007, -1.61531193e-006, -3.49586867e-006,
          -2.48475180e-006, 7.82336883e-007, -2.94223514e-006,
          4.36484470e-006, -7.55810197e-006, 1.86673617e-006,
          -6.45589466e-008, 3.98823431e-006, -7.15135855e-007,
          -2.97986503e-006, 2.87357216e-006, 1.80283303e-006,
          1.40700104e-006, -6.40575036e-006, -2.87133821e-006,
          -8.08718198e-007, -1.51472295e-006, -1.04186279e-006,
          3.54700092e-007, -1.21904770e-006, -3.05652725e-006,
          -4.87308353e-006, -2.03756190e-006, 2.00843806e-006,
          -2.49258073e-006, -5.67739971e-006, 3.96442556e-006,
          4.95627489e-007, -3.97711710e-006, -6.53909524e-007,
          -3.70146211e-007, -2.35709467e-006, -2.40330291e-006,
          -2.31055492e-006, 2.26143186e-007, -1.31179218e-006,
          2.30521528e-006, -5.66379185e-006, -2.10914777e-006,
          -3.19925789e-006, -2.91930860e-006, -5.41077407e-006,
          -1.52785219e-006, 1.60173570e-007, -4.80749259e-006,
          -2.83633909e-007, -4.73275077e-006, -3.61725961e-006,
          1.12603163e-006, -3.27224689e-006, 4.32885508e-006,
          3.37408096e-006, -2.15682007e-007, -3.64690806e-007,
          2.14434158e-006, -3.29882346e-006, -5.21417905e-006,
          -5.09404458e-007, -8.35840274e-006, 1.30115723e-006,
          -3.15368038e-006, 3.90154719e-006, 4.00369174e-007,
          1.36947435e-007, 3.26507507e-006, -5.97347537e-007,
          -2.58575847e-006, 1.25080373e-006, 1.42966962e-006,
          -3.05605312e-007, -1.93008350e-006, -7.35305946e-007,
          -5.91100445e-007, -2.68797976e-006, 3.38952646e-006,
          -2.71493491e-007, 2.54720931e-007, 8.39687573e-008,
          3.86922835e-007, -2.49605182e-006, 2.08610959e-006,
          -6.58019871e-007, 5.63674303e-006, 1.69871521e-006,
          -8.04170099e-008, 5.55202007e-007, -4.42430837e-006,
          -7.42431212e-007, 1.31416959e-006, 6.51907249e-006,
          -6.22524738e-007, -4.70909072e-006, 2.23344728e-006,
          4.58390423e-006, -5.79991706e-007, -2.53149528e-006,
          3.43441940e-007, 5.40509973e-006, 6.59985005e-007,
          3.41695295e-006, 2.86502313e-006, 3.34647984e-006,
          5.31370279e-006, 6.27015152e-006, -8.09751691e-006,
          4.73076807e-006, 2.30168621e-006, -3.51549033e-007,
          -5.87582804e-007, 5.09925883e-007, -7.70742190e-006,
          -3.16234491e-006, 1.98474504e-006, -1.21551079e-006,
          1.68829149e-006, 5.08386984e-006, -5.59364116e-006,
          -4.35020547e-006, 5.78744539e-006, -7.52860387e-007,
          -2.33955643e-006, 4.12214513e-006, 4.07542666e-006,
          -6.31475132e-007, 1.79946198e-007, 5.43242209e-007,
          5.63597951e-007, -1.32998730e-006, -3.17961394e-006,
          1.07244944e-006, -4.27805298e-006, 2.77165952e-007,
          -5.62613494e-008, -1.48791059e-006, 2.63093648e-006,
          7.21828769e-007, -3.16519026e-006, -1.52816801e-006,
          -1.78351104e-006, -4.34716276e-006, -5.82369603e-006,
          -3.75953005e-006, 6.60837429e-007, 8.95820449e-007,
          2.67313999e-006, -3.30005651e-006, -4.90307548e-006,
          3.86349802e-006, 3.58712532e-006, -3.54046165e-006,
          5.23199242e-006, -3.54122278e-007, 7.65112304e-007,
          -1.02259025e-006, 2.86840248e-007, 3.98095972e-006,
          -4.43200634e-006, -3.30968510e-006, 3.82417511e-006,
          1.21374649e-006, -3.34979927e-006, 1.81982807e-006,
          -8.33714239e-006, -2.77946981e-007, -4.49360823e-006,
          -2.47620414e-006, -1.31105151e-006, 3.65680580e-006,
          3.15512375e-006, -2.11643328e-006, -1.09795792e-006,
          1.10824226e-006, -5.91870730e-006, 2.42693915e-007,
          3.09465827e-006, 1.45695185e-006, 5.50930281e-006,
          -1.06836090e-007, 1.31570357e-006, 6.71152839e-006,
          -4.77449566e-006, -2.83837539e-006, -1.14389854e-006,
          7.50324307e-006, 4.34289177e-007, 8.08694494e-006,
          -1.18513822e-006, -5.50255436e-007, 1.25101280e-006,
          -3.49265815e-006, -3.11223562e-006, 4.87434420e-007,
          -1.06025425e-006, -6.59291572e-006, -1.86860927e-006,
          4.94805772e-006, 1.85542922e-006, -1.63857749e-006,
          -5.38089671e-006, -8.61992760e-007, -1.82061342e-006,
          -2.65321728e-006, 3.73727751e-008, 1.00568559e-006,
          -5.56835630e-006, -3.32071045e-006, -1.89878119e-006,
          -5.62840023e-006, -3.39467533e-007, -7.05049388e-007,
          7.70231665e-008, 4.56345077e-007, -3.61126490e-006,
          1.56052636e-006, -3.72664772e-006, 6.14338524e-006,
          -1.62963647e-006, -1.24461155e-006, 2.66226880e-006,
          -4.97172823e-006, -1.67561325e-006, 1.54753013e-006,
          -5.03735964e-006, 7.44686031e-006, 1.06726122e-006,
          5.17043418e-006, -2.57954616e-006, 2.98391842e-006,
          2.29147645e-006, 5.64349057e-006, -4.14206215e-006,
          -6.84038298e-007, -2.39309816e-006, -1.31143634e-006,
          1.15864827e-006, 4.91533046e-006, 9.79847300e-007,
          -1.41089185e-006, -9.00163343e-007, -2.02327897e-006,
          -4.17210828e-007, -1.21225946e-006, -3.80324468e-006,
          5.23883273e-007, 3.88232274e-006, -1.88040030e-006,
          -4.61392210e-006, -2.41407110e-006, 3.40736256e-006,
          -4.94553888e-006, 3.15708962e-006, -3.91394042e-006,
          -6.58042927e-006, -8.69473206e-006, -1.61847800e-006,
          1.67301948e-006, -4.51479582e-006, -1.59369040e-006,
          3.60261356e-006, 1.37929271e-006, -8.72697115e-008,
          -4.28725934e-006, -5.88289186e-006, -2.33605010e-006,
          -9.14476956e-008, -3.03943284e-006, -6.19345928e-006,
          -1.26014843e-008, -1.60169009e-006, -6.96260167e-006,
          -1.26682585e-006, -9.34789932e-006, 1.69808163e-006,
          -8.59725901e-007, -4.41510394e-007, 6.05715104e-006,
          -1.61249295e-006, 6.50763695e-007, -1.75799940e-007,
          2.39042993e-006, -8.47022761e-007, 4.00967565e-006,
          -2.63072752e-006, 2.07757466e-006, -4.19608068e-006,
          -1.02346910e-007, 1.90709727e-006, 1.51611130e-006,
          4.89733293e-006, 4.51944580e-008, -4.34634467e-006,
          -2.49778077e-006, 2.36333381e-006, -2.80166137e-006,
          -3.57506065e-006, 4.36912160e-006, -1.28029524e-006,
          -2.97379324e-006, -2.70417559e-006, 2.99784188e-006,
          -4.51359438e-006, -5.29762019e-007, 2.44115427e-006,
          1.98124485e-006, 2.92149753e-006, -1.65571606e-007,
          3.06684888e-006, -1.90501612e-006, -4.10471193e-006,
          -4.07543439e-007, -1.02278227e-006, 1.94898598e-006,
          -2.59156673e-006, -3.12881696e-007, 5.92272151e-008,
          -1.53448354e-006, 5.35798972e-006, -2.19267167e-006,
          -1.46464743e-006, -4.56339012e-006, -4.53089342e-006,
          -2.45145452e-006, -2.50646417e-006, -2.57260496e-007,
          -5.74476280e-006, 4.38521874e-006, -2.77556239e-007,
          3.49248808e-007, -2.98686382e-006, -1.47229514e-006,
          4.76154128e-006, -5.54099756e-007, -8.95697326e-007,
          -4.41584052e-006, -4.34731828e-006, 2.32680634e-007,
          1.45606850e-006, -2.49824120e-006, -6.18859588e-007,
          2.28674003e-006, 3.99623923e-006, -4.13814860e-006,
          -5.37806045e-006, -1.95942448e-006, -3.22529513e-006,
          -3.08605991e-006, -2.09160862e-006, -9.03969863e-007,
          -4.24487507e-006, -3.89798970e-006, 1.30393346e-006,
          1.41210353e-006, 1.44487800e-007, -4.44505247e-007,
          6.39764323e-007, -4.75523393e-006, 3.56210558e-006,
          -2.90691673e-006, -4.77437834e-006, -3.76267121e-006,
          6.38240226e-006, -4.09595259e-006, 1.69283817e-006,
          -2.05556648e-006, -2.64770415e-006, -1.01858950e-006,
          -4.88822423e-007, -4.50395873e-006, -1.62326569e-006,
          -5.80060987e-006, 5.59706859e-006, -3.18347384e-006,
          -3.33664252e-006, -2.80840116e-008, -1.96919973e-006,
          -3.84473742e-006, -7.73916113e-008, -2.04557260e-008,
          9.10169888e-007, 1.32377045e-006, 2.69908287e-006,
          4.65694347e-006, 2.30768546e-006, 3.02134595e-006,
          6.09533299e-006, 2.10985013e-006, 3.85308807e-009,
          -1.04166566e-006, 3.84840632e-006, 4.56392218e-006,
          2.98167083e-006, -4.27806253e-006, 2.13925361e-007,
          -1.32683749e-006, 3.14111304e-007, -1.52782115e-006,
          -1.17345417e-006, 3.80399638e-006, -1.64965343e-006,
          1.16427452e-006, -4.13499447e-006, 2.29477379e-007,
          -8.70522854e-007, -4.53964367e-006, 1.67092935e-006,
          -2.89962418e-006, 4.15613749e-006, -3.66394556e-006,
          -7.21387039e-007, -3.01391628e-006, -2.59315766e-006,
          8.48960212e-007, -7.77338641e-007, 1.70543080e-006,
          6.12750773e-006, -1.52388793e-006, -9.68345717e-007,
          1.42404031e-006, -1.35529558e-006, -2.69147267e-006,
          1.31185470e-006, -5.98465704e-006, -2.38578741e-006,
          -1.85996180e-006, 3.94957351e-006, -4.48978517e-006,
          -1.58436353e-006, -2.06390064e-006, -4.93677999e-006,
          -2.84955877e-006, 2.58713249e-006, 5.74191563e-006,
          -1.55181863e-006, -4.66122719e-006, 3.71730096e-007,
          -4.09616814e-006, -7.99775137e-007, 6.86919577e-007,
          -3.94572180e-006, -3.73865805e-006, -4.90296361e-006,
          -4.18952459e-006, -5.17619583e-007, -3.10357382e-006,
          5.66008502e-008, 4.02793717e-007, -1.90574929e-006,
          -3.61248135e-006, -3.94630797e-006, -9.14652901e-007,
          -9.15516068e-007, 6.32958063e-007, 4.37546163e-007,
          -4.29794170e-007, -4.50914831e-006, 1.80001200e-006,
          -2.48571610e-006, -4.35152879e-006, 2.70836722e-006,
          -6.44957140e-007, -6.92851813e-007, -4.80977224e-006,
          -1.95846087e-006, 3.38734276e-006, 3.00363922e-007,
          -6.30949216e-006, -3.88244814e-007, 1.40926841e-006,
          -1.21832670e-006, -7.58339274e-006, -2.88743286e-006,
          -3.38741847e-006, -3.21580592e-006, 3.36508833e-006,
          -6.37236917e-006, 6.08830351e-006, -4.13727912e-006,
          1.92001767e-006, -6.14612645e-006, -1.56807641e-006,
          -2.74093372e-006, -1.50391429e-006, -2.88052638e-006,
          -2.39128951e-007, -2.70360442e-006, 4.37882545e-006,
          -8.10839595e-007, -1.62884680e-006, 6.46205422e-007,
          -2.66955817e-006, 3.91443393e-008, -1.11090776e-006,
          -2.15857040e-006, 1.30962277e-007, -2.03057243e-006,
          -8.16503245e-007, -2.24277255e-006, -4.14169608e-006,
          -4.35913671e-006, 2.27266196e-006, -6.01959812e-007,
          1.75700109e-007, 2.30520436e-006, -1.41221437e-006,
          6.98320207e-007, -2.02740193e-006, -6.01081547e-006,
          -4.33913056e-006, -4.10046732e-006, -2.10763255e-006,
          -4.99985254e-006, -6.29788883e-006, 4.31837748e-008,
          1.11225756e-006, -4.14476517e-006, -3.17566492e-006,
          -6.33923537e-006, -8.71669329e-007, -4.26905444e-006,
          5.58679858e-006, 4.43773251e-006, -4.00242561e-006,
          -2.16500803e-006, -3.89203478e-006, -3.89654997e-006,
          -1.98906514e-006, 6.83633289e-007, 2.68982149e-007,
          3.62844639e-006, 2.06026061e-006, -1.37412462e-006,
          -1.70296869e-006, 3.64280163e-006, -2.94237611e-006,
          -2.27396549e-006, 5.04836362e-006, -6.16041962e-006,
          -4.51190829e-007, 4.28353223e-006, -6.67550330e-006,
          4.14589795e-006, -5.89466845e-006, -2.58549312e-006,
          2.69899510e-006, 1.13528517e-006, -1.52533744e-006,
          8.43495116e-007, -3.78409072e-006, -2.07602170e-006,
          -3.16368460e-006, -4.55314330e-006, -4.36699565e-006,
          -2.23918931e-007, -3.24029202e-006, -1.54227700e-006,
          1.71978752e-006, -4.73430282e-006, 9.16232580e-007,
          6.27240161e-006, -1.90775881e-006, -9.13879603e-007,
          -4.55126519e-006, 4.86592626e-007, 4.32545562e-007,
          1.60165513e-007, -2.88807178e-006, 4.60909678e-006,
          -2.13312933e-006, -4.42425471e-006, -4.19197022e-006,
          -2.00810041e-006, 1.03154400e-006, -2.95419295e-006,
          2.00879026e-006, -3.25350993e-006, -9.17882872e-008,
          1.60726665e-006, -1.25672659e-006, -1.11827546e-006,
          -2.86719796e-006, 2.87808248e-008, -4.31619264e-006,
          4.43468161e-006, 1.76976499e-007, 4.02880414e-006,
          -3.76970797e-006, -4.98347117e-006, -1.87370961e-006,
          -2.54665997e-006, 1.61252115e-006, -2.73894443e-006,
          3.55061638e-006, 3.56786899e-007, -4.94990559e-007,
          -1.03236277e-006, 1.42441570e-006, -3.17910917e-006,
          -1.01780279e-006, 1.37743513e-007, 3.20025242e-006,
          -1.03843388e-006, -2.40373902e-006, 5.59126465e-006,
          -4.05583620e-007, -3.44188425e-006, 2.57886700e-006,
          3.00312820e-007, 5.73011675e-006, 3.60376771e-006,
          -4.88044975e-007, 4.04197544e-006, -3.33486264e-006,
          -4.93395191e-006, 3.73972443e-006, -3.80851560e-007,
          6.17553667e-007, -4.67338941e-006, -4.46204331e-006,
          -3.99446122e-007, -7.09013011e-006, 2.82623341e-006,
          -4.71066915e-006, -4.16569083e-006, -8.21868343e-006,
          2.15356317e-006, -3.14331885e-007, 1.83074906e-006,
          -2.36391111e-006, -1.82189376e-006, 5.01759416e-007,
          2.72608827e-006, -2.15294540e-006, -7.80497771e-007,
          -1.33291041e-006, 1.74239972e-006, 1.16161220e-006,
          -2.83470126e-006, -8.80229709e-006, -3.06180186e-006,
          -3.23350719e-006, -5.61558522e-007, 3.84030500e-006,
          5.19088417e-006, -2.77955724e-006, 2.08584243e-006,
          1.16666953e-007, 1.52360599e-006, 2.33293281e-006,
          2.41488260e-006, -2.95878476e-006, -4.86470026e-006,
          1.81982250e-006, -3.90713285e-006, 2.28303134e-006,
          -2.16135291e-007, -7.19984769e-007, 5.74933119e-006,
          -2.51412735e-006, 1.63809887e-006, -2.00966269e-006,
          2.72066768e-006, -1.41364387e-006, 7.48786249e-007,
          -2.30562318e-006, -4.21248433e-006, 2.86823365e-006,
          2.51419374e-006, 2.81603593e-006, -3.07080700e-006,
          -5.66353128e-006, -3.70175417e-006, -3.64717425e-006,
          -6.17852209e-007, -3.85840804e-006, -3.56400005e-006,
          1.07279698e-006, -1.30460364e-007, -2.55784857e-006,
          -4.21539335e-006, 5.54005646e-006, -1.93435494e-006,
          -6.82107338e-006, -1.54243276e-006, 1.24914527e-006,
          -1.44004991e-006, -5.93747609e-006, 3.79971175e-006,
          -1.68197289e-006, 2.55813734e-006, -4.60478623e-006,
          -5.41628469e-006, 7.38820700e-006, -1.88615445e-006,
          -1.50908306e-006, 1.73193973e-006, 2.06357595e-006,
          -2.01926196e-006, 4.32386014e-006, 1.81463832e-007,
          -2.26384327e-006, -9.34993579e-007, -1.53350447e-006,
          -4.39952828e-006, 6.63765741e-006, -3.84756777e-006,
          -4.36281198e-006, -4.53094088e-007, -1.96532213e-007,
          -5.57445082e-006, 1.08023391e-006, -5.38184941e-006,
          -4.72330657e-006, -2.67218320e-006, 5.09084941e-007,
          -5.22784512e-006, -5.69419217e-006, -7.68002508e-007,
          3.83656970e-006, -1.13132126e-006, -8.35346236e-006,
          1.21938035e-006, 7.17368664e-007, -2.66786515e-006,
          -4.56039425e-006, -3.44759792e-006, 1.69699717e-007,
          -1.57651925e-006, 5.64057316e-008, -4.46081413e-006,
          -4.79529672e-006, 1.26303087e-006, -8.09853645e-006,
          -4.85777400e-006, -1.76725644e-006, 3.79940047e-007,
          -2.69410771e-006, 2.48008661e-007, 2.74222174e-007,
          -2.58322166e-006, -5.92326842e-006, 1.06698224e-007,
          -1.07657725e-005, -9.71573718e-006, -7.71661405e-007,
          -1.88800584e-007, -7.59560544e-006, 9.49432206e-007,
          4.85996861e-006, -3.05884100e-006, -7.92661376e-006,
          -5.39161556e-006, -2.68177678e-006, 2.32533375e-006,
          -3.05304820e-006, 1.67559961e-006, 3.10011933e-006,
          4.69629595e-006, -2.43577074e-006, -3.26589679e-006,
          -1.71052250e-006, -4.40426493e-006, -7.94023435e-006,
          3.55980796e-006, 1.86878697e-006, 1.44522426e-006,
          -3.15583998e-006, 9.10651670e-006, -2.42544479e-006,
          -1.96152769e-006, -2.85238139e-006, -3.73677130e-006,
          -6.39917971e-006, 1.60389405e-007, -1.10940946e-005,
          -6.08463779e-006, 6.13134546e-007, 2.24871701e-006,
          -8.85714144e-006, 4.86871841e-006, 4.87822547e-007,
          -7.63783828e-006, -5.85101407e-006, 3.38130917e-006,
          -2.36601682e-006, -3.18248567e-007, -9.54083407e-006,
          4.89386775e-006, -2.80361587e-006, 2.00972727e-006,
          1.70131432e-006, -1.17125171e-006, 4.52668655e-006,
          1.71912711e-006, -5.36072866e-006, 1.30412090e-007,
          6.23092001e-006, -2.18230548e-006, -2.67354881e-006,
          -5.22991559e-006, -2.70285818e-006, -8.88772320e-007,
          3.17478225e-006, -1.81596852e-006, 2.46853210e-006,
          2.36726896e-006, 3.62994228e-006, -3.11333359e-008,
          -3.79630683e-006, -1.60785339e-006, -1.07412723e-006,
          -4.31186299e-006, 4.39368023e-006, 3.26937720e-006,
          -3.39955432e-006, -1.59112244e-006, 1.99939632e-006,
          2.43959789e-006, -1.84126421e-007, -2.00759973e-006,
          4.34384401e-006, 3.88273202e-006, -2.84039970e-007,
          3.53835367e-006, -2.77600680e-006, -1.70674625e-007,
          3.70881344e-006, 3.47101377e-006, 1.40235414e-007,
          -2.19921549e-006, -2.71706472e-006, 6.42323883e-008,
          6.53822508e-006, -3.13718601e-006, -5.26688791e-006,
          -2.31190234e-006, 2.39658380e-006, -2.60534648e-006,
          -1.00463274e-006, -2.33748960e-006, -1.74541401e-006,
          7.25105292e-006, -3.60955005e-006, 3.18537241e-006,
          4.27349732e-006, -3.72203772e-006, 4.94487040e-007,
          5.14960720e-006, -3.67613239e-007, 6.63571745e-006,
          3.53512775e-007, -1.06393361e-006, -2.44174402e-007,
          -5.24044617e-006, 2.53852659e-006, 2.17165052e-006,
          5.33190632e-006, -2.46952459e-006, 1.23833320e-006,
          -9.24048948e-007, -4.47211914e-006, 3.34906758e-006,
          -3.47344985e-006, -4.43855515e-006, -1.59758918e-006,
          -1.88969921e-006, -3.99082001e-006, 2.43336967e-006,
          -3.64122883e-007, -2.93106268e-007, -5.20572121e-006,
          -1.35795551e-006, 9.30495105e-007, -3.42257999e-006,
          1.50856721e-007, 1.35574498e-006, 8.92568664e-007,
          -1.72544361e-007, -1.23579139e-006, 4.59388048e-006,
          4.89520744e-007, 4.28757403e-006, 2.38078314e-007,
          6.31660896e-006, -2.76704759e-006, 7.17327850e-007,
          -2.00978116e-006, -6.20054891e-007, -8.04766387e-006,
          -7.53118093e-006, 7.09115795e-007, -3.80242682e-006,
          1.05388494e-006, -1.61626872e-006, 1.22314839e-006,
          1.26924272e-006, -4.64307959e-006, 6.23288997e-007,
          1.82386225e-006, -4.20273591e-006, 1.54459826e-006,
          -2.60451179e-006, 3.16077808e-006, 2.84034013e-006,
          8.60425132e-007, -1.04254013e-006, -2.06205755e-006,
          -2.18571358e-006, 1.68923248e-006, 1.17362026e-006,
          -1.24511575e-006, -1.47586979e-006, 5.00767101e-006,
          -3.22648816e-006, -3.40680754e-006, -4.26617180e-006,
          1.40778229e-006, 6.32536299e-008, -6.28119506e-006,
          2.05054516e-006, -3.45532180e-006, 3.16769444e-007,
          -1.08572317e-006, 3.61086359e-006, 4.19747039e-006,
          -6.04322281e-007, -4.43249928e-006, -2.08679853e-006,
          3.72347267e-006, -4.85243163e-006, -2.65881863e-006,
          -8.96344204e-007, 4.47157618e-006, -2.52637778e-006,
          -7.95467585e-008, 3.17942840e-006, 4.04209368e-006,
          1.48017898e-006, -6.94277969e-006, -2.36934125e-006,
          -6.03423223e-006, -3.03008983e-006, -3.84666373e-006,
          1.75620096e-006, -6.19978391e-006, 7.62068112e-007,
          -6.15021747e-007, -5.93093660e-007, 4.27260920e-006,
          -3.46893239e-006, -3.26953136e-006, 6.55019994e-006,
          1.68032250e-006, -1.93117012e-006, -1.84369617e-006,
          -5.80016194e-006, -5.55507722e-006, -4.64857294e-006,
          -1.96032420e-006, -4.49393474e-006, -2.30269757e-006,
          -9.31349462e-007, 1.96866677e-006, -1.14230511e-006,
          -5.05905473e-006, -4.43994077e-006, -6.11138103e-006,
          -5.15112652e-006, -5.32523291e-006, -2.36870983e-006,
          -3.03654360e-006, -5.50620427e-007, -2.71914701e-006,
          -4.05744549e-006, 1.97037548e-006, -3.20045501e-007,
          -2.57273541e-006, 1.87568688e-007, -1.35229459e-006,
          -8.89884063e-007, -6.03684043e-007, -2.63522452e-006,
          -2.91237779e-006, 7.33666468e-007, 3.18736875e-006,
          1.93515280e-006, -1.49999380e-006, 4.66022766e-006,
          -3.18217894e-006, -1.91720801e-006, -6.25963094e-006,
          -2.45662841e-006, 9.07230742e-007, -4.42351848e-006,
          2.12145051e-006, 2.57946476e-006, -6.64956906e-006,
          -7.62115008e-007, -3.59847581e-006, -6.36449431e-006,
          1.38194719e-006, -1.00337843e-006, 4.05764382e-007,
          -2.48656011e-006, 7.51022355e-007, 1.85382376e-007,
          -3.14367207e-006, -3.43475767e-006, -6.73797331e-006,
          -1.26350744e-006, -5.79517518e-007, -6.59162822e-007,
          6.03019043e-006, -3.45019362e-006, -2.29148259e-006,
          4.58602472e-006, 6.07841957e-006, -4.04444836e-006,
          6.48868036e-006, -1.03140701e-006, -5.55205042e-006,
          -5.95414167e-006, 2.18910304e-006, -4.57528040e-006,
          3.83660290e-006, 1.26107102e-006, -2.04414141e-006,
          -4.62204923e-007, -4.74952230e-006, 3.07770449e-007,
          -1.15933702e-007, -7.75884018e-007, -2.69030511e-006,
          -7.03117757e-006, 5.76679838e-007, -2.31180252e-006,
          2.62115435e-007, 3.26658380e-007, 3.48928029e-006,
          3.54642657e-006, -4.75665183e-006, 4.60463843e-006,
          2.09928021e-006, 3.14585213e-006, 2.35434209e-006,
          8.77902323e-007, -1.71020588e-006, -4.48686166e-007,
          -3.36383800e-006, 4.38268444e-007, -6.19132743e-006,
          -2.20297989e-006, -5.88719013e-006, -2.62527806e-006,
          -9.65393951e-007, -4.73392720e-006, -5.73370335e-006,
          -7.75716501e-007, -6.87952650e-007, -1.01832848e-006,
          -4.38345842e-006, -2.59636835e-007, -4.60562802e-007,
          -1.63694870e-006, -1.13728817e-007, 2.83628219e-006,
          -4.91963146e-006, -1.94381005e-006, -2.67087080e-006,
          -2.74692297e-006, -2.99749604e-006, 3.08815697e-006,
          -4.51977121e-006, 1.69618670e-006, -4.14611662e-007,
          -4.01691568e-006, 1.40316774e-006, 3.43535862e-006,
          1.16790295e-006, 1.71745199e-007, -3.53590917e-006,
          1.80971165e-006, 1.99273336e-006, -3.83344695e-006,
          -2.49248546e-006, -1.33327524e-006, -8.00241537e-007,
          -2.55116561e-006, -1.94840436e-006, 2.91045126e-006,
          4.59159128e-006, -7.90706224e-007, -1.18696812e-006,
          -3.02077683e-006, -4.20289462e-006, 8.43852945e-007,
          4.06580148e-006, -8.18015735e-007, -2.22250904e-007,
          -4.60692218e-006, -1.51068411e-006, -4.42470218e-006,
          -2.61276591e-006, -1.07130734e-006, -1.26359498e-006,
          4.27862460e-006, 2.02924795e-007, -2.73510693e-007,
          -2.14828788e-006, -3.68042180e-007, -5.36193920e-006,
          1.14944640e-007, -1.61101639e-006, -3.64750213e-006,
          -4.44277157e-006, -2.75921116e-006, 1.63547315e-006,
          -2.11159318e-006, -3.94046492e-006, 2.12168857e-006,
          -3.61054799e-006, -2.18536729e-006, -3.82372991e-006,
          -2.50879089e-006, 1.84068176e-006, 1.89914999e-006,
          -2.45328738e-006, -3.74483284e-006, 2.45227898e-006,
          1.84872806e-006, -3.94703693e-006, 9.39448171e-007,
          -2.52527030e-007, -1.22526831e-006, -7.09811411e-006,
          7.86255896e-007, 1.92898187e-006, -1.56084639e-007,
          -5.78511845e-006, -3.09528741e-006, -1.22168797e-006,
          -2.39616224e-006, 3.29411728e-006, -1.78284347e-006,
          -3.91116555e-006, 1.18026583e-006, -6.60061050e-006,
          -2.86698446e-006, -3.16890464e-006, -3.93595792e-006,
          -4.09246786e-006, 5.01638669e-006, -4.08440383e-006,
          2.29470947e-006, -4.92815525e-006, -2.67234873e-006,
          -7.07332720e-006, -4.87030502e-006, -2.44647003e-006,
          -4.41102566e-006, 4.14863109e-007, -3.83205588e-007,
          -5.07630921e-006, -6.94540532e-008, 1.82390795e-006,
          1.70531860e-006, -3.18234811e-006, 9.83864538e-007,
          6.96414872e-007, -4.04544025e-008, -2.47144931e-006,
          -8.02245904e-006, 2.42431906e-006, 2.97146357e-007,
          1.38156793e-006, 6.23816095e-006, 4.91674609e-006,
          3.52802772e-006, 3.63588606e-006, 3.13793265e-007,
          -5.07351888e-006, -2.73898877e-006, -3.07977257e-006,
          -1.66069390e-006, 5.11175767e-006, -1.24927135e-006,
          -6.86313297e-006, 2.17961679e-006, -2.53967687e-006,
          -7.31762793e-006, 4.30985801e-006, -1.55355235e-006,
          7.32750493e-007, -3.81419613e-006, 9.41890846e-007,
          -4.12365580e-007, -6.05904233e-006, -2.95383006e-006,
          -2.00242084e-006, 3.27442717e-006, -6.94879589e-007,
          5.05588059e-006, 4.04593220e-006, -5.58156898e-006,
          -4.22546009e-006, -3.35770869e-006, 1.78325493e-007,
          7.79659786e-007, -1.25905626e-006, 1.17780655e-006,
          2.01777971e-006, -7.37136588e-006, -6.03816625e-006,
          7.96606230e-007, 1.36086760e-006, -8.54876453e-006,
          4.34730396e-007, 1.16681939e-007, -1.10979113e-006,
          -1.20804657e-006, 8.71773580e-007, -2.82462952e-006,
          1.80494169e-006, 2.35344885e-007, 2.19970275e-006,
          -4.35180709e-006, -1.75214302e-006, 3.25563792e-006,
          3.55463067e-006, -3.19600849e-006, 7.28659131e-007,
          1.87712124e-006, 1.58046635e-006, -4.87933812e-006,
          3.13944497e-006, 1.52831888e-006, 3.08194967e-006,
          -4.24726659e-006, -2.04139042e-006, -3.75002128e-006,
          -2.75358229e-006, -3.65032065e-006, -2.32761249e-006,
          4.11514378e-007, -8.40355256e-007, 5.97057806e-007,
          3.38720383e-006, -6.61565628e-006, -1.14873522e-007,
          3.10356029e-007, -3.28094529e-006, -3.52734196e-006,
          -5.24836082e-007, -1.40781469e-006, -7.69089411e-007,
          -5.05340768e-006, -6.03796309e-007, 3.85717925e-007,
          -3.35238087e-006, -1.52827272e-006, -2.05833339e-006,
          3.89603336e-008, -4.64845698e-006, 1.88379818e-006,
          -2.71448380e-006, 7.66252185e-007, -2.53753979e-006,
          -3.49227548e-006, 4.95017912e-006, -2.11756901e-006,
          1.32019773e-006, -3.45557140e-007, 1.53611882e-006,
          2.50204636e-007, -2.25672920e-006, 7.32461331e-007,
          -5.63926778e-006, -1.31584011e-006, -5.38421000e-006,
          -5.47177251e-006, -1.68886629e-006, 8.20984098e-007,
          2.81160783e-006, 6.82923087e-007, -5.54871394e-006,
          -5.59155751e-007, 3.22150731e-006, -1.18431819e-006,
          4.05585615e-006, -3.39253711e-006, 4.96050643e-006,
          -1.14787758e-006, -1.99958004e-006, 7.29567262e-007,
          2.14553120e-006, -1.95862157e-007, -9.24527922e-006,
          4.52349968e-006, 4.83600047e-007, 2.78276821e-006,
          -4.84351176e-006, -8.70755201e-008, -2.77838717e-006,
          -4.80687686e-006, -6.85366740e-006, 4.63503937e-007,
          -7.00941155e-006, 1.14118308e-007, -3.70828488e-008,
          -2.75446928e-006, -2.68320650e-006, 8.50627544e-007,
          -8.27732765e-006, -8.83415669e-006, -7.27708766e-007,
          1.34752202e-006, -3.49120796e-006, -1.75886532e-006,
          -5.26710801e-006, -1.23466509e-006, 5.25020459e-006,
          2.90799858e-006, -5.96325117e-006, -3.82049029e-006,
          9.88154625e-007, -5.40224335e-007, -9.13153690e-006,
          6.97644680e-007, -1.55618113e-006, -1.84857390e-006,
          -2.81037501e-007, 1.33259948e-006, 2.04503272e-006,
          -5.84278632e-006, -3.19079049e-006, -8.14953455e-006,
          4.47633784e-006, -8.71598729e-007, -5.81318636e-006,
          4.63293372e-006, 4.96219229e-007, 3.14240111e-007,
          -7.64290326e-006, 1.93662572e-007, 2.33670926e-006,
          -8.00547878e-006, -9.48691877e-007, 3.73039893e-006,
          -2.88214039e-008, -1.16498438e-006, 7.65028574e-007,
          -2.03685772e-006, 4.17987593e-007, 4.71727020e-007,
          -2.11569659e-006, 6.03324997e-006, 2.55376131e-006,
          -3.03682373e-006, -5.98664928e-006, -7.57484895e-006,
          -1.71075456e-007, -1.99948786e-007, 8.64039862e-007,
          5.65717130e-007, -2.28292697e-006, 2.84206681e-006,
          -4.62408161e-006, -3.69274119e-007, -6.45526916e-006,
          -4.35722131e-006, 2.28298723e-006, 1.74464901e-006,
          -9.96871790e-007, 6.11793723e-007, 1.01954549e-006,
          1.31869638e-006, -2.89647545e-007, 7.02810530e-006,
          -1.73100580e-006, -6.76107811e-006, 9.87710109e-007,
          -2.02958446e-007, -1.51954953e-006, 1.92909306e-006,
          2.35046332e-006, 3.78457230e-006, -8.11246082e-006,
          5.47850789e-007, 1.82858196e-006, -2.92497225e-006,
          -1.87072033e-006, -1.49402479e-006, 4.75905199e-006,
          -1.55354041e-006, -7.56842246e-006, 7.12034443e-006,
          -1.67144572e-006, -1.00463240e-006, -1.59723163e-006,
          -1.56594339e-007, -5.13230088e-006, -5.76540651e-006,
          -2.30084964e-007, 7.90387048e-007, 2.85576743e-006,
          5.72868112e-006, 3.33113758e-006, -3.22854089e-006,
          -1.82784376e-007, 4.15862218e-007, 1.01932540e-006,
          -3.66524159e-006, 4.57024953e-007, -1.42658294e-007,
          6.58966383e-006, 4.75986599e-006, 3.48890057e-006,
          1.24354688e-006, -1.11118368e-006, 4.25522103e-006,
          6.19031425e-007, -8.06737148e-007, 9.80487940e-008,
          -1.22865629e-006, 2.38803318e-006, -1.97714144e-006,
          -2.54285646e-006, -8.27802239e-007, -2.22892095e-006,
          -4.81151710e-006, -3.71421629e-006, -3.46142855e-007,
          -2.11299016e-006, 4.39444329e-006, -4.04261698e-007,
